~o
<STREAMINFO> 1 39
<VECSIZE> 39<NULLD><MFCC_E_D_A_Z><DIAGC>
~s "silst"
<NUMMIXES> 3
<MIXTURE> 1 4.105128e-01
<MEAN> 39
 -4.887678e+00 -2.358378e+00 2.517252e+00 5.215474e+00 3.880982e+00 6.638618e+00 4.675548e+00 5.903261e+00 4.160983e+00 4.341147e+00 3.450027e+00 1.769437e+00 2.086764e-01 -2.045592e+00 -6.064687e-01 -1.209928e+00 3.091042e-01 2.486991e-01 8.587136e-01 1.009229e+00 1.435328e+00 1.086335e+00 9.828046e-01 6.888387e-01 2.635128e-01 -5.162433e-02 5.444697e-01 6.235002e-01 1.789353e-02 -2.879920e-01 -3.130692e-01 -5.585985e-01 -4.876887e-01 -5.639180e-01 -3.785565e-01 -3.977007e-01 -3.143682e-01 -1.319959e-01 4.020917e-02
<VARIANCE> 39
 2.205275e+01 4.481823e+01 3.279739e+01 3.217252e+01 3.335760e+01 3.641836e+01 3.579759e+01 4.316441e+01 3.560892e+01 3.418546e+01 3.412589e+01 2.847264e+01 2.808638e-02 3.240686e+00 3.589406e+00 3.444440e+00 3.094677e+00 3.060003e+00 4.008464e+00 4.749916e+00 5.216245e+00 3.957365e+00 3.544765e+00 3.357918e+00 3.234951e+00 6.742629e-03 3.701616e-01 6.084084e-01 5.000498e-01 6.316879e-01 6.283686e-01 6.418413e-01 6.271251e-01 7.009711e-01 7.012452e-01 7.143099e-01 6.543606e-01 5.943099e-01 7.269240e-04
<GCONST> 1.077194e+02
<MIXTURE> 2 1.801380e-01
<MEAN> 39
 3.390760e+00 4.646601e+00 4.446756e+00 1.491514e+00 2.579218e-01 -1.916337e-02 -1.593611e+00 -3.131949e-01 1.601802e+00 1.559907e+00 1.544317e+00 2.459006e+00 4.846431e-01 2.498806e+00 1.955548e+00 -1.092682e+00 -2.078580e+00 -1.985085e+00 -2.217292e+00 -1.929867e+00 -1.528728e+00 -1.311960e+00 -6.405152e-01 -5.125706e-01 -3.068598e-01 1.858754e-01 -5.618973e-01 -4.052770e-01 -3.669953e-01 -2.018207e-01 1.600816e-01 2.538180e-01 2.847587e-01 3.538298e-01 1.200054e-01 -2.206758e-02 -3.715488e-02 -1.392081e-01 -1.742381e-02
<VARIANCE> 39
 3.505909e+01 4.650969e+01 4.662498e+01 3.961559e+01 3.918122e+01 3.924823e+01 4.530820e+01 4.891422e+01 4.107627e+01 4.471984e+01 4.764405e+01 3.504697e+01 4.126457e-02 3.063749e+00 3.635049e+00 5.754248e+00 3.805218e+00 3.707940e+00 4.370918e+00 4.357464e+00 3.784677e+00 3.982745e+00 3.945189e+00 4.282283e+00 4.220931e+00 3.159757e-03 4.956457e-01 3.183354e-01 5.798609e-01 7.087266e-01 5.995935e-01 6.234177e-01 7.407492e-01 7.040779e-01 7.534888e-01 7.316521e-01 7.634930e-01 6.726693e-01 6.217625e-04
<GCONST> 1.113465e+02
<MIXTURE> 3 4.093482e-01
<MEAN> 39
 -2.349122e+00 -1.202745e+00 1.631289e+00 2.287941e+00 2.775102e+00 3.320470e+00 1.509160e+00 2.657872e+00 3.121083e+00 1.149359e+00 1.594941e+00 1.014393e+00 2.961865e-02 -3.693466e-01 1.326237e-01 -3.018947e-02 1.173966e-01 -1.008859e-01 7.435501e-03 -5.086811e-02 2.409555e-04 -1.289140e-01 -6.593227e-02 -5.866678e-02 -8.009662e-02 -1.451253e-03 1.576448e-01 1.820489e-01 7.502849e-02 1.118211e-01 3.327499e-02 2.613937e-02 7.781902e-03 -1.017081e-02 -2.889055e-02 1.870629e-02 -5.590045e-03 2.020785e-02 2.042655e-02
<VARIANCE> 39
 1.324907e+01 4.246124e+01 2.336620e+01 2.521250e+01 2.717591e+01 2.704202e+01 2.682892e+01 3.376260e+01 2.506711e+01 2.680593e+01 2.489453e+01 1.932975e+01 2.264032e-02 1.435626e+00 1.709906e+00 1.383176e+00 1.550547e+00 1.734336e+00 1.856259e+00 1.863254e+00 2.152410e+00 2.089293e+00 1.975314e+00 1.829550e+00 1.595996e+00 3.902401e-03 2.067040e-01 3.315144e-01 2.547820e-01 2.975043e-01 3.585364e-01 3.797068e-01 3.779486e-01 4.231293e-01 4.356540e-01 3.907379e-01 3.559312e-01 3.341459e-01 6.497356e-04
<GCONST> 8.753128e+01
~h "#i"
<BEGINHMM>
<NUMSTATES> 15
<STATE> 2
<NUMMIXES> 2
<MIXTURE> 1 4.452355e-01
<MEAN> 39
 -9.557569e-01 1.064076e+01 -2.553415e+00 -4.331210e+00 -4.853374e+00 -5.737917e+00 -2.033498e+00 4.820051e-01 1.549589e+00 7.619814e-01 2.631981e+00 9.825780e-01 7.802392e-01 -1.708307e-01 1.120828e+00 -2.908507e-01 9.090487e-01 -6.092431e-01 -1.381420e-01 -5.952300e-01 -3.671945e-01 -2.609565e-01 2.440016e-01 5.886461e-01 5.227509e-01 1.075065e-02 1.497328e-01 -2.540755e-01 1.436976e-01 5.345026e-02 -5.435169e-02 3.024093e-01 3.715067e-02 8.367744e-02 -7.383348e-02 -3.747740e-02 -2.443189e-01 -6.301409e-02 6.738016e-04
<VARIANCE> 39
 1.634930e+01 2.766828e+01 3.375725e+01 3.055893e+01 2.617532e+01 2.995865e+01 4.903998e+01 4.158364e+01 6.399023e+01 8.561662e+01 7.007219e+01 8.072723e+01 1.547995e-02 8.452792e-01 1.945268e+00 1.431041e+00 2.239311e+00 1.706671e+00 2.961495e+00 3.015947e+00 2.958792e+00 4.046114e+00 4.920726e+00 4.790515e+00 5.891756e+00 6.805649e-04 1.424255e-01 2.977149e-01 2.410673e-01 3.979407e-01 4.339288e-01 6.345538e-01 4.871638e-01 5.349656e-01 7.216781e-01 8.089385e-01 7.461753e-01 8.611948e-01 1.503854e-04
<GCONST> 9.868427e+01
<MIXTURE> 2 5.547619e-01
<MEAN> 39
 1.216011e+00 1.281447e+01 -1.899347e+00 -2.102210e+00 -4.873413e+00 -4.483336e+00 -1.539583e+00 1.709365e+00 -4.685289e-01 7.065154e-01 -5.874025e-01 1.957400e+00 7.505251e-01 -5.955953e-01 6.832054e-01 -6.301942e-01 9.948909e-03 -7.004326e-01 -5.299342e-01 -1.002595e+00 -8.385673e-01 -1.097876e+00 -1.088806e+00 -7.777887e-01 -2.269339e-01 3.773064e-02 -1.593811e-01 -6.185920e-01 1.418694e-01 1.228633e-01 1.937546e-01 2.019774e-01 4.183316e-02 -7.430797e-02 3.491537e-02 -9.851765e-03 1.388116e-03 -7.059719e-02 -1.063124e-02
<VARIANCE> 39
 1.308589e+01 3.426365e+01 2.021031e+01 2.253053e+01 2.068782e+01 2.458810e+01 4.553374e+01 2.504696e+01 2.332202e+01 2.935356e+01 3.458699e+01 3.991791e+01 1.378852e-02 9.021087e-01 1.954230e+00 1.080208e+00 1.778088e+00 1.551144e+00 1.915098e+00 1.769620e+00 2.405071e+00 2.003992e+00 2.145439e+00 3.495896e+00 2.805394e+00 1.269278e-03 1.567016e-01 3.627656e-01 2.860320e-01 4.092872e-01 4.643146e-01 5.008075e-01 4.463082e-01 3.714249e-01 3.503145e-01 4.043538e-01 4.821722e-01 4.913054e-01 5.751810e-04
<GCONST> 8.835557e+01
<STATE> 3
<NUMMIXES> 2
<MIXTURE> 1 4.286484e-01
<MEAN> 39
 -1.634418e+00 1.103479e+01 -5.125803e+00 -2.802330e+00 -7.780080e+00 -7.436691e+00 -4.786212e+00 -3.846899e+00 -4.938024e+00 -3.206364e+00 -4.396407e+00 1.457889e+00 8.586116e-01 -7.980421e-02 1.608027e-01 7.718840e-02 4.867417e-01 5.594176e-02 9.509744e-02 -2.260855e-01 -3.076549e-01 -1.553442e-01 -2.077195e-01 2.690999e-02 3.235397e-01 1.531854e-02 2.234860e-01 1.131310e-01 2.881910e-01 1.691010e-01 3.592075e-01 2.893447e-01 3.778613e-01 4.849589e-01 4.997549e-01 4.134044e-01 3.303757e-01 1.232845e-01 -4.645749e-03
<VARIANCE> 39
 1.324212e+01 3.034573e+01 1.857895e+01 1.680239e+01 2.200588e+01 2.788245e+01 2.951214e+01 2.644272e+01 2.700824e+01 2.669717e+01 4.963105e+01 5.381187e+01 8.698202e-03 4.513831e-01 7.010968e-01 8.280299e-01 1.023797e+00 1.291000e+00 1.283761e+00 1.603123e+00 1.617191e+00 1.493429e+00 1.629077e+00 1.941946e+00 2.166198e+00 1.787029e-04 7.328048e-02 1.033141e-01 1.292264e-01 1.804622e-01 1.843724e-01 2.445933e-01 2.423945e-01 2.461296e-01 2.352807e-01 2.510442e-01 3.820308e-01 3.735785e-01 5.859236e-05
<GCONST> 7.097938e+01
<MIXTURE> 2 5.713506e-01
<MEAN> 39
 -8.370063e-01 1.432800e+01 -6.761804e-01 -1.916093e+00 -5.867867e+00 -5.154922e+00 -7.220963e+00 8.279219e-01 -1.566382e+00 -1.665831e+00 1.013954e+00 -8.465230e-01 8.255209e-01 -4.192026e-01 3.418230e-01 -3.247902e-01 6.199708e-02 -4.574372e-01 -3.114602e-01 -7.171306e-01 -4.306383e-01 -5.526642e-01 -5.089203e-01 -2.382692e-01 -4.156042e-01 1.810360e-02 8.269563e-02 -2.282449e-01 1.544151e-02 -1.377262e-01 4.851803e-02 4.078789e-02 1.536627e-01 -4.262313e-02 3.888373e-02 4.585018e-02 -4.772758e-02 7.217702e-02 -2.882149e-03
<VARIANCE> 39
 1.046723e+01 3.138223e+01 2.027585e+01 2.104355e+01 1.773822e+01 2.173121e+01 4.413947e+01 2.641758e+01 3.219318e+01 3.621400e+01 4.104129e+01 3.227721e+01 6.691527e-03 4.382259e-01 8.592607e-01 7.117856e-01 1.030915e+00 9.035680e-01 1.336838e+00 1.332139e+00 1.644284e+00 1.326861e+00 1.277802e+00 1.410479e+00 1.243666e+00 2.510232e-04 7.079023e-02 1.007691e-01 1.166797e-01 1.904300e-01 1.661660e-01 1.878881e-01 2.149024e-01 2.221120e-01 2.343414e-01 2.238348e-01 2.223834e-01 2.118873e-01 3.509505e-05
<GCONST> 6.675467e+01
<STATE> 4
<NUMMIXES> 2
<MIXTURE> 1 4.422332e-01
<MEAN> 39
 -1.200968e+00 1.325092e+01 -1.570063e+00 -1.410264e+00 -5.665873e+00 -4.636974e+00 -6.646084e+00 -4.101107e-01 -2.327938e+00 -2.099749e+00 9.121077e-01 -1.773980e-01 8.792243e-01 1.188049e-01 2.502259e-01 1.507872e-01 3.282866e-01 2.750373e-01 1.797194e-01 1.640325e-01 1.816856e-01 2.274884e-01 1.678599e-01 1.733786e-01 1.364610e-01 6.542411e-03 1.986026e-02 -8.044682e-02 -1.773724e-02 -8.864082e-02 1.615712e-02 -4.272965e-02 5.087379e-02 6.606574e-03 6.187704e-02 3.866223e-02 -1.850842e-02 -3.441491e-02 -2.632500e-03
<VARIANCE> 39
 1.037669e+01 3.930512e+01 1.854953e+01 1.506386e+01 2.192134e+01 2.647679e+01 3.833287e+01 3.013711e+01 3.184268e+01 3.724122e+01 4.711543e+01 4.814956e+01 6.479856e-03 2.245403e-01 3.962960e-01 4.773238e-01 5.766606e-01 6.319215e-01 8.115348e-01 9.371263e-01 8.639693e-01 9.197230e-01 8.585576e-01 9.092342e-01 9.942446e-01 6.486984e-05 3.984335e-02 6.299502e-02 9.197564e-02 1.045553e-01 1.344253e-01 1.497280e-01 1.559097e-01 1.808637e-01 1.759954e-01 1.602620e-01 1.752689e-01 1.677847e-01 1.303918e-05
<GCONST> 5.548593e+01
<MIXTURE> 2 5.577593e-01
<MEAN> 39
 -1.960746e+00 1.242550e+01 -1.082119e+00 -1.748759e+00 -4.002124e+00 -4.579701e+00 -6.199820e+00 -3.685412e-01 -1.883301e+00 -2.890476e+00 1.643156e+00 -4.530131e-01 8.904774e-01 1.473089e-03 9.879203e-03 -4.094433e-02 -5.834891e-02 4.357375e-02 -5.326648e-02 2.641574e-02 -5.539986e-02 3.192381e-02 -3.121744e-02 -1.041600e-02 -3.595973e-02 4.453075e-04 5.463199e-03 -2.356827e-02 4.696164e-03 -3.793950e-02 -7.584361e-03 -2.397370e-02 1.241936e-02 5.937241e-03 1.379289e-02 1.969835e-02 -7.071574e-03 -1.116937e-03 -9.857381e-04
<VARIANCE> 39
 7.214869e+00 4.959972e+01 1.139931e+01 1.002815e+01 1.313795e+01 1.862521e+01 2.878233e+01 1.579429e+01 2.156817e+01 2.680618e+01 3.522594e+01 2.793822e+01 6.985584e-03 6.429449e-02 1.064677e-01 1.383398e-01 1.798753e-01 2.090568e-01 2.289747e-01 2.494118e-01 2.593676e-01 2.712063e-01 2.539719e-01 2.075669e-01 2.392255e-01 3.754082e-05 9.418287e-03 1.663688e-02 2.203755e-02 2.797605e-02 3.560588e-02 3.668766e-02 3.770484e-02 3.996792e-02 4.667562e-02 4.263488e-02 3.521885e-02 4.488549e-02 3.730628e-06
<GCONST> 1.742093e+01
<STATE> 5
<NUMMIXES> 2
<MIXTURE> 1 4.005136e-01
<MEAN> 39
 -8.478118e-01 1.268451e+01 -5.616563e+00 -2.099437e+00 -7.878021e+00 -7.878203e+00 -4.621612e+00 -2.773525e+00 -1.811511e+00 -2.077483e+00 -2.496942e+00 2.168188e+00 8.867729e-01 1.664831e-01 2.374123e-01 2.083869e-01 2.748361e-01 3.524114e-01 3.244192e-01 3.849418e-01 3.119178e-01 4.138481e-01 2.491143e-01 2.727361e-01 9.142007e-02 -5.740297e-04 5.893766e-02 4.908300e-02 1.548867e-01 7.543273e-02 2.036293e-01 1.403602e-01 1.924271e-01 1.334408e-01 1.533839e-01 1.687874e-01 1.183023e-01 5.912211e-02 -1.241952e-03
<VARIANCE> 39
 1.886406e+01 2.897216e+01 2.270436e+01 2.025840e+01 1.766566e+01 2.322720e+01 3.118047e+01 2.839385e+01 4.492789e+01 5.634172e+01 6.817319e+01 7.326883e+01 6.738463e-03 1.708813e-01 3.034599e-01 4.251343e-01 6.085767e-01 6.504981e-01 7.765341e-01 6.844793e-01 7.214341e-01 6.925506e-01 8.141281e-01 7.122979e-01 7.796722e-01 3.754082e-05 3.035808e-02 5.757055e-02 8.269258e-02 1.128870e-01 1.135227e-01 1.406317e-01 1.406515e-01 1.493954e-01 1.518242e-01 1.551839e-01 1.487485e-01 1.403461e-01 5.181860e-06
<GCONST> 5.240548e+01
<MIXTURE> 2 5.994853e-01
<MEAN> 39
 2.179902e-01 1.409803e+01 -3.009454e+00 1.440619e-01 -5.289722e+00 -5.619235e+00 -3.838717e+00 -8.940720e-01 -1.973241e+00 -1.207649e+00 -2.373049e+00 1.481815e+00 8.798407e-01 -4.680773e-02 -1.715586e-01 -2.369357e-01 -1.841248e-01 -1.646205e-01 -3.076018e-01 -1.252179e-01 -2.759918e-01 -7.058242e-02 -1.085454e-01 -1.665549e-01 -2.388798e-01 8.771051e-05 -7.093585e-02 -1.215043e-01 -9.471027e-02 -1.905472e-01 -9.444299e-02 -1.518209e-01 -9.056071e-02 -1.098211e-01 -7.389075e-02 -1.125199e-01 -8.381915e-02 -1.134095e-01 -1.163724e-03
<VARIANCE> 39
 1.397708e+01 2.823549e+01 1.525298e+01 1.501595e+01 1.872559e+01 2.491045e+01 2.879053e+01 2.742180e+01 2.078059e+01 2.902899e+01 4.453811e+01 4.274061e+01 5.692549e-03 1.130492e-01 2.628464e-01 3.886510e-01 4.639262e-01 5.241256e-01 6.392931e-01 7.106444e-01 6.080161e-01 6.671668e-01 7.116683e-01 6.601006e-01 6.853098e-01 3.754082e-05 2.411849e-02 5.188398e-02 7.168829e-02 8.412363e-02 1.086404e-01 1.280577e-01 1.377164e-01 1.336036e-01 1.280264e-01 1.275282e-01 1.093481e-01 1.396298e-01 4.175633e-06
<GCONST> 4.505291e+01
<STATE> 6
<NUMMIXES> 2
<MIXTURE> 1 5.182934e-01
<MEAN> 39
 -6.932951e-01 3.375617e+00 -1.966779e+00 -1.092686e+00 -2.134471e+00 -2.260004e+00 -2.025351e+00 -1.691008e+00 -1.814142e+00 -1.818163e+00 -1.674494e+00 -6.027863e-01 9.421251e-01 2.739833e-01 6.381779e-02 1.863639e-01 2.430485e-01 2.146113e-01 1.028119e-01 1.686161e-01 1.498278e-01 2.732885e-01 2.791321e-01 1.850188e-01 7.997724e-02 -4.740794e-03 4.327912e-02 2.614257e-02 5.963631e-02 3.002037e-02 5.469839e-02 1.838358e-02 1.169034e-02 5.252416e-02 4.947149e-02 8.008147e-02 6.387037e-02 4.866519e-02 -1.057244e-03
<VARIANCE> 39
 7.610373e+00 2.526310e+01 1.059556e+01 9.596040e+00 1.495793e+01 1.321270e+01 1.648194e+01 1.405591e+01 1.259375e+01 1.327206e+01 1.906779e+01 1.327828e+01 2.567924e-03 2.072034e-01 3.805836e-01 6.112632e-01 6.187288e-01 8.971269e-01 7.250001e-01 1.035208e+00 9.986827e-01 8.759062e-01 8.503973e-01 8.358755e-01 6.636124e-01 3.754082e-05 3.454315e-02 7.641104e-02 1.209167e-01 1.192226e-01 1.832259e-01 1.391852e-01 1.924787e-01 1.934945e-01 1.530922e-01 1.392368e-01 1.580537e-01 1.194549e-01 3.730628e-06
<GCONST> 4.454195e+01
<MIXTURE> 2 4.817054e-01
<MEAN> 39
 -2.529039e-01 1.256298e+01 -2.339658e+00 -6.694115e-01 -4.775845e+00 -4.799843e+00 -4.593290e+00 -7.636383e-01 -3.067290e-01 -7.922296e-01 6.199010e-01 8.027956e-01 8.922875e-01 -1.572583e-01 -2.606187e-01 -1.974345e-01 -5.370635e-01 -3.833015e-03 -3.766237e-01 -8.192365e-02 -3.116747e-01 6.672581e-02 -1.095701e-01 -4.566655e-02 -2.524914e-01 -1.209966e-03 -5.815532e-02 -1.779481e-01 -2.251802e-02 -2.914342e-01 1.715211e-02 -1.713800e-01 -4.205495e-02 -1.076708e-01 -5.725838e-02 -1.093901e-01 -9.636087e-02 -8.776585e-02 -2.018506e-03
<VARIANCE> 39
 1.489870e+01 4.585891e+01 2.136593e+01 1.964204e+01 2.163929e+01 2.797282e+01 3.860150e+01 2.701380e+01 3.348803e+01 4.477833e+01 5.155762e+01 5.733062e+01 6.392969e-03 2.925497e-01 4.479505e-01 6.782377e-01 7.674326e-01 1.064583e+00 1.136124e+00 1.129758e+00 1.193301e+00 1.263294e+00 1.198341e+00 1.517930e+00 1.088038e+00 6.023300e-05 5.382584e-02 9.140985e-02 1.538420e-01 1.416589e-01 1.781051e-01 2.152350e-01 2.376968e-01 2.459064e-01 1.972920e-01 2.475168e-01 2.231974e-01 2.281704e-01 9.240667e-06
<GCONST> 6.402351e+01
<STATE> 7
<NUMMIXES> 2
<MIXTURE> 1 5.873771e-01
<MEAN> 39
 -9.551028e-01 1.417329e+01 -1.556559e-01 -1.907610e+00 -4.097044e+00 -4.805424e+00 -7.836264e+00 -2.052674e-01 1.884001e-01 -2.878070e+00 3.063496e+00 -2.827399e+00 8.567864e-01 1.529007e-01 -3.531618e-01 2.270711e-01 -4.395529e-01 5.364856e-01 -1.739326e-01 2.573651e-01 7.654087e-02 3.233206e-01 3.483973e-01 -1.316033e-01 1.762896e-01 -7.583612e-03 1.448607e-01 -2.304820e-01 1.274159e-01 -1.012693e-01 1.436697e-01 1.056715e-01 1.842643e-01 5.478083e-02 -4.173411e-02 8.078473e-02 -1.863810e-01 9.073542e-02 -3.987185e-03
<VARIANCE> 39
 1.345630e+01 3.890304e+01 1.624882e+01 2.162938e+01 1.727013e+01 2.311083e+01 3.706412e+01 1.928913e+01 2.808858e+01 3.229869e+01 2.858293e+01 2.090040e+01 6.346671e-03 4.229259e-01 5.681751e-01 6.624627e-01 1.256384e+00 8.789375e-01 9.261670e-01 1.136727e+00 1.022998e+00 1.275096e+00 1.280273e+00 1.368966e+00 9.894845e-01 1.296717e-04 6.145613e-02 9.675821e-02 1.375767e-01 1.767817e-01 1.492268e-01 1.635124e-01 2.310285e-01 2.116420e-01 2.120768e-01 2.092591e-01 1.944062e-01 1.828945e-01 1.848196e-05
<GCONST> 6.176023e+01
<MIXTURE> 2 4.126221e-01
<MEAN> 39
 -8.708596e-01 1.234478e+01 -6.310492e+00 -1.915699e+00 -7.486879e+00 -8.415257e+00 -2.707300e+00 -3.289311e+00 -2.095219e+00 -1.587166e-01 -1.942991e+00 4.156669e+00 8.949835e-01 -4.404142e-01 -5.205851e-01 -1.745637e-01 -1.121702e+00 9.574754e-02 -9.188144e-01 -4.935431e-02 -5.808411e-01 5.381671e-02 -3.843100e-01 1.016218e-01 -6.495581e-01 -3.764184e-03 1.235712e-01 -1.379585e-01 3.964055e-01 -1.789778e-01 3.987651e-01 9.267299e-02 7.080971e-02 1.823144e-01 5.007478e-02 8.232735e-03 1.001634e-01 -1.681801e-01 -4.143588e-03
<VARIANCE> 39
 1.871012e+01 3.008752e+01 1.857470e+01 2.212388e+01 2.566801e+01 2.747549e+01 2.262737e+01 2.996765e+01 3.664795e+01 4.158480e+01 8.533484e+01 9.069669e+01 5.142320e-03 4.296490e-01 4.893707e-01 8.528664e-01 1.057380e+00 1.455482e+00 1.438215e+00 1.839687e+00 1.407443e+00 1.474400e+00 1.631963e+00 1.424447e+00 1.719742e+00 6.406492e-05 7.617902e-02 1.394529e-01 1.809326e-01 2.613742e-01 2.449615e-01 2.601154e-01 3.734843e-01 2.953751e-01 2.932300e-01 3.097220e-01 3.798415e-01 4.026678e-01 1.263718e-05
<GCONST> 7.215612e+01
<STATE> 8
<NUMMIXES> 2
<MIXTURE> 1 5.416541e-01
<MEAN> 39
 -5.963857e-01 1.226614e+01 -3.208882e+00 -3.562610e+00 -5.768631e+00 -7.937028e+00 -6.149806e+00 -2.566199e+00 -2.621657e+00 -3.552861e+00 -2.301663e+00 -2.343027e+00 8.504122e-01 3.587393e-01 -3.725889e-01 5.786862e-01 -4.673281e-01 8.608520e-01 1.303079e-01 5.561637e-01 2.712317e-01 3.706949e-01 1.516416e-01 4.148796e-01 -2.919357e-02 -1.396603e-02 2.529156e-01 -3.873575e-02 3.779538e-01 2.808349e-01 3.684971e-01 4.263113e-01 2.751918e-01 2.404823e-01 1.422292e-01 2.171699e-01 1.451536e-01 1.719181e-01 -6.664918e-03
<VARIANCE> 39
 1.845471e+01 3.535418e+01 2.820143e+01 2.435854e+01 2.109666e+01 3.197024e+01 3.009455e+01 3.257064e+01 2.998700e+01 2.512797e+01 4.428585e+01 3.280753e+01 7.105579e-03 6.135013e-01 6.532927e-01 1.076190e+00 1.553223e+00 1.174256e+00 1.511943e+00 2.207010e+00 1.487652e+00 1.920114e+00 1.840258e+00 2.187800e+00 1.924073e+00 1.522872e-04 9.364337e-02 1.135793e-01 2.096486e-01 2.058728e-01 2.374742e-01 2.645993e-01 2.990778e-01 3.840465e-01 3.454910e-01 3.001171e-01 3.411370e-01 2.580606e-01 3.184381e-05
<GCONST> 7.465461e+01
<MIXTURE> 2 4.583457e-01
<MEAN> 39
 -2.890579e-01 1.195393e+01 -3.885363e+00 -1.890445e+00 -2.936845e+00 -6.283828e+00 -2.543848e+00 -1.296597e+00 3.386736e+00 2.276364e+00 3.102287e+00 4.172794e+00 8.801515e-01 1.017344e-01 -8.517376e-01 5.038238e-01 -9.841542e-01 8.722077e-01 -4.093291e-01 2.800880e-01 1.860199e-01 -1.148030e-01 2.600625e-01 -3.887601e-01 -1.644308e-01 -8.030991e-03 1.420282e-01 -2.961318e-01 3.256198e-01 -6.166684e-02 -8.769546e-02 2.423016e-01 -9.239680e-02 1.123777e-01 -3.259807e-01 -2.692702e-01 -2.867885e-01 -2.988874e-01 -5.656810e-03
<VARIANCE> 39
 2.547318e+01 3.382547e+01 2.930133e+01 2.294341e+01 2.470745e+01 2.402277e+01 4.061283e+01 2.884042e+01 4.311611e+01 6.524337e+01 7.572827e+01 7.914222e+01 6.306667e-03 7.854985e-01 1.014373e+00 1.495553e+00 2.832351e+00 2.051876e+00 1.954619e+00 1.966766e+00 1.865319e+00 1.780894e+00 2.385671e+00 2.370838e+00 2.413447e+00 1.776029e-04 1.273291e-01 1.793815e-01 2.599674e-01 2.155059e-01 2.982568e-01 3.684075e-01 3.919011e-01 3.109462e-01 3.137937e-01 4.120354e-01 3.940797e-01 4.343223e-01 2.932603e-05
<GCONST> 8.321080e+01
<STATE> 9
<NUMMIXES> 2
<MIXTURE> 1 6.715573e-01
<MEAN> 39
 6.207232e-01 1.133611e+01 -8.320769e-01 -3.056658e+00 -3.472459e+00 -6.051625e+00 -5.414713e+00 -1.034254e+00 -1.089542e+00 -2.196323e+00 -8.875498e-02 -1.988407e+00 8.310893e-01 7.068804e-01 -5.556544e-01 9.692611e-01 1.331972e-01 9.766209e-01 6.545298e-01 6.649300e-01 1.636140e-01 2.904563e-01 2.847930e-01 6.202840e-02 3.998575e-02 -2.482215e-02 2.974039e-02 -7.251561e-02 2.628365e-01 5.031075e-01 2.027491e-01 4.449753e-01 1.591463e-01 2.295263e-02 -4.133441e-02 3.932395e-02 -2.427869e-02 8.989755e-02 -1.003544e-02
<VARIANCE> 39
 1.816193e+01 3.891965e+01 2.169569e+01 3.188673e+01 1.862579e+01 2.537381e+01 3.334440e+01 2.595264e+01 2.739519e+01 2.889034e+01 3.565405e+01 2.996671e+01 6.904366e-03 7.775772e-01 9.533831e-01 1.620790e+00 1.586790e+00 1.733705e+00 1.650626e+00 2.642945e+00 2.329963e+00 2.381309e+00 1.897455e+00 2.963398e+00 2.539810e+00 2.157758e-04 1.158805e-01 1.409485e-01 2.192580e-01 2.940770e-01 2.140715e-01 2.991191e-01 3.225817e-01 3.330662e-01 3.337092e-01 3.466815e-01 3.053475e-01 3.184001e-01 5.549769e-05
<GCONST> 7.884887e+01
<MIXTURE> 2 3.284425e-01
<MEAN> 39
 -3.368088e+00 1.131347e+01 -3.868639e+00 -7.544544e+00 -2.636834e+00 -9.998002e+00 -1.509087e+00 -1.768620e+00 1.162832e+00 1.588174e+00 1.769808e+00 3.406082e+00 8.874851e-01 4.458880e-01 -1.680727e+00 1.570586e+00 -1.970469e+00 1.055757e+00 3.440740e-01 1.566247e-01 1.088695e+00 -3.720493e-01 -1.086192e-01 -6.974602e-01 -1.027637e+00 -1.601170e-02 4.253121e-01 -3.264130e-01 4.362251e-01 6.749889e-01 -2.775647e-01 9.240410e-01 -9.913867e-02 1.552393e-01 -1.661131e-01 -2.183930e-01 -1.801753e-01 -1.992145e-01 -9.562373e-03
<VARIANCE> 39
 1.520685e+01 3.244051e+01 2.929523e+01 1.812979e+01 2.598268e+01 3.074227e+01 3.790107e+01 3.883282e+01 4.856063e+01 5.811475e+01 5.771036e+01 7.510911e+01 5.298419e-03 7.765639e-01 1.502438e+00 2.214334e+00 2.258083e+00 2.487470e+00 1.759416e+00 2.970058e+00 2.831613e+00 3.160988e+00 4.312793e+00 4.202612e+00 3.814870e+00 2.761275e-04 1.518104e-01 2.860617e-01 2.644225e-01 2.590975e-01 6.122984e-01 3.996304e-01 5.698876e-01 5.030703e-01 4.395481e-01 5.631031e-01 3.717753e-01 4.991302e-01 9.300817e-05
<GCONST> 9.093372e+01
<STATE> 10
<MEAN> 39
 3.732724e-01 1.027425e+01 1.152016e-02 -5.025555e+00 -1.748774e+00 -6.338960e+00 -3.547660e+00 -3.129535e-01 -2.493717e-01 -6.656598e-01 2.667722e-01 -6.306487e-01 8.231555e-01 8.186159e-01 -9.974013e-01 1.506422e+00 3.812018e-01 8.647467e-01 1.378193e+00 5.376769e-01 4.047189e-01 3.570343e-03 6.479366e-02 -3.240961e-01 -3.089388e-01 -3.375286e-02 -1.157167e-01 -1.408580e-01 4.840113e-02 7.573999e-01 -5.178524e-02 5.015284e-01 8.574110e-02 -3.390194e-02 -5.523511e-02 -4.959606e-02 4.367984e-02 1.056068e-01 -1.216944e-02
<VARIANCE> 39
 2.115795e+01 3.600945e+01 2.549802e+01 4.513479e+01 2.432566e+01 3.032330e+01 3.723289e+01 3.270481e+01 3.393695e+01 3.679124e+01 3.436974e+01 4.008833e+01 7.676154e-03 1.018766e+00 1.944293e+00 2.230551e+00 2.442709e+00 2.399330e+00 2.178030e+00 3.376403e+00 2.968675e+00 2.924969e+00 3.167327e+00 3.727200e+00 3.667663e+00 4.906959e-04 2.167387e-01 2.429807e-01 2.661324e-01 5.135612e-01 4.917244e-01 4.367769e-01 4.462506e-01 4.688331e-01 4.057924e-01 4.349240e-01 3.832153e-01 3.906190e-01 1.383892e-04
<GCONST> 9.156124e+01
<STATE> 11
<MEAN> 39
 2.496141e+00 9.455228e+00 1.866779e+00 -3.078649e+00 -6.615621e-01 -3.798393e+00 -3.323702e+00 -7.892007e-02 -2.180552e-01 -7.983679e-01 -4.216453e-01 -1.185020e+00 7.590477e-01 3.410858e-01 -9.379575e-01 1.370058e+00 1.443045e+00 7.241533e-01 1.545977e+00 4.541386e-01 -5.207507e-02 -1.833141e-01 -2.309091e-01 -1.744539e-01 -1.220631e-01 -4.464409e-02 -4.427024e-01 -1.779528e-01 -2.637393e-01 4.572381e-01 -2.833270e-02 1.084633e-01 9.365712e-02 7.179077e-03 5.959070e-02 2.872474e-02 1.446393e-01 1.752637e-01 -1.193460e-02
<VARIANCE> 39
 2.096122e+01 3.948293e+01 2.982303e+01 5.447760e+01 2.774325e+01 2.710286e+01 3.784028e+01 3.634594e+01 3.384654e+01 3.405328e+01 3.516389e+01 3.760692e+01 1.254883e-02 1.320207e+00 2.216962e+00 2.022388e+00 2.538708e+00 3.213044e+00 3.191212e+00 3.374860e+00 3.012780e+00 2.508289e+00 3.280368e+00 3.285193e+00 3.165727e+00 9.988163e-04 2.752178e-01 2.555544e-01 4.575182e-01 6.147096e-01 4.411025e-01 5.340829e-01 4.915344e-01 6.064675e-01 5.307786e-01 5.161887e-01 5.393708e-01 5.236586e-01 2.217308e-04
<GCONST> 9.684177e+01
<STATE> 12
<MEAN> 39
 1.926737e+00 8.288090e+00 3.827657e+00 -7.706774e-01 -5.697035e-01 -1.627378e+00 -2.621547e+00 -7.800646e-01 -7.605470e-01 -1.581348e+00 -7.325485e-01 -1.286817e+00 7.116094e-01 -4.676960e-01 -1.397493e+00 7.358693e-01 1.918018e+00 7.844893e-01 1.692568e+00 8.473473e-01 2.766838e-01 4.286563e-02 8.109140e-02 1.974577e-01 2.644871e-01 -6.569386e-02 -5.683544e-01 -2.821806e-01 -6.373611e-01 5.927913e-03 -4.371434e-03 -1.568834e-01 1.800987e-01 2.568240e-01 2.900604e-01 2.944539e-01 2.630683e-01 2.217433e-01 -1.076098e-02
<VARIANCE> 39
 1.894987e+01 4.794927e+01 2.783978e+01 5.442213e+01 3.311282e+01 3.068232e+01 4.091276e+01 3.909668e+01 3.984923e+01 3.384978e+01 3.583081e+01 3.616513e+01 1.479897e-02 1.900594e+00 2.500303e+00 1.941895e+00 3.124298e+00 3.544090e+00 3.583062e+00 3.056944e+00 2.992946e+00 2.586012e+00 3.013250e+00 2.823876e+00 2.673254e+00 2.349650e-03 3.263883e-01 3.615384e-01 4.840879e-01 5.903355e-01 5.737544e-01 7.504700e-01 6.748189e-01 8.004130e-01 6.877359e-01 6.214029e-01 6.034832e-01 6.401915e-01 3.294764e-04
<GCONST> 1.017446e+02
<STATE> 13
<MEAN> 39
 5.695454e-01 6.506645e+00 4.199430e+00 1.524900e+00 6.195194e-01 -1.581563e-02 -1.527050e+00 -4.562251e-01 -1.085013e+00 -1.367423e+00 1.182059e-02 -6.042324e-01 6.382787e-01 -1.197975e+00 -1.876038e+00 -2.387872e-01 1.425780e+00 8.045198e-01 1.189162e+00 1.074040e+00 8.116621e-01 5.614048e-01 5.988876e-01 5.620087e-01 5.691206e-01 -7.825278e-02 -3.576995e-01 -1.494861e-01 -6.412012e-01 -4.218099e-01 -3.960145e-02 -3.181980e-01 8.752141e-02 2.565561e-01 3.546844e-01 3.324327e-01 1.386174e-01 7.178953e-02 -1.583075e-03
<VARIANCE> 39
 1.876132e+01 5.530932e+01 2.748494e+01 5.732791e+01 4.778349e+01 3.902736e+01 4.721848e+01 3.955878e+01 3.984338e+01 4.209328e+01 3.937432e+01 3.436190e+01 2.567573e-02 2.750512e+00 2.257224e+00 2.572698e+00 3.353930e+00 2.776492e+00 4.715022e+00 2.635019e+00 3.729920e+00 3.320252e+00 2.798454e+00 3.114770e+00 3.155771e+00 4.267755e-03 2.194434e-01 4.721175e-01 4.031361e-01 5.852536e-01 8.723216e-01 7.468994e-01 8.883321e-01 7.906302e-01 6.585227e-01 7.421030e-01 6.297936e-01 6.047503e-01 3.485263e-04
<GCONST> 1.057804e+02
<STATE> 14
<MEAN> 39
 -1.382199e+00 4.135298e+00 3.149064e+00 2.347163e+00 1.389450e+00 7.985405e-01 -1.991594e-01 1.278244e+00 4.933308e-01 -2.025170e-01 1.152559e+00 5.294549e-01 5.251994e-01 -1.358383e+00 -2.006404e+00 -8.687738e-01 5.841317e-01 7.527362e-01 8.090294e-01 1.037074e+00 1.143629e+00 1.050345e+00 1.016436e+00 5.514759e-01 4.571028e-01 -7.193066e-02 6.421810e-03 1.518937e-01 -3.343774e-01 -4.934407e-01 -6.909101e-02 -2.418776e-01 -3.663858e-02 2.445579e-02 1.477406e-01 1.595975e-01 -7.146378e-02 -1.313278e-01 1.318708e-02
<VARIANCE> 39
 2.569360e+01 5.323193e+01 2.795383e+01 5.470444e+01 4.461497e+01 4.751933e+01 4.476424e+01 3.743496e+01 3.682550e+01 3.674685e+01 4.113587e+01 3.277850e+01 5.541612e-02 2.820199e+00 2.616168e+00 3.141780e+00 3.214297e+00 3.535950e+00 5.220934e+00 3.966836e+00 4.533244e+00 4.029045e+00 3.432351e+00 3.530213e+00 3.816426e+00 5.444409e-03 1.744773e-01 4.376813e-01 3.638770e-01 6.464009e-01 6.867021e-01 6.795045e-01 7.168633e-01 5.918385e-01 5.407749e-01 6.091115e-01 5.987337e-01 4.707087e-01 4.643663e-04
<GCONST> 1.072772e+02
<TRANSP> 15
 0.000000e+00 1.000000e+00 0.000000e+00 0.000000e+00 0.000000e+00 0.000000e+00 0.000000e+00 0.000000e+00 0.000000e+00 0.000000e+00 0.000000e+00 0.000000e+00 0.000000e+00 0.000000e+00 0.000000e+00
 0.000000e+00 6.320180e-01 3.679820e-01 0.000000e+00 0.000000e+00 0.000000e+00 0.000000e+00 0.000000e+00 0.000000e+00 0.000000e+00 0.000000e+00 0.000000e+00 0.000000e+00 0.000000e+00 0.000000e+00
 0.000000e+00 0.000000e+00 6.366946e-01 3.633054e-01 0.000000e+00 0.000000e+00 0.000000e+00 0.000000e+00 0.000000e+00 0.000000e+00 0.000000e+00 0.000000e+00 0.000000e+00 0.000000e+00 0.000000e+00
 0.000000e+00 0.000000e+00 0.000000e+00 7.787722e-01 2.212278e-01 0.000000e+00 0.000000e+00 0.000000e+00 0.000000e+00 0.000000e+00 0.000000e+00 0.000000e+00 0.000000e+00 0.000000e+00 0.000000e+00
 0.000000e+00 0.000000e+00 0.000000e+00 0.000000e+00 7.097245e-01 2.902755e-01 0.000000e+00 0.000000e+00 0.000000e+00 0.000000e+00 0.000000e+00 0.000000e+00 0.000000e+00 0.000000e+00 0.000000e+00
 0.000000e+00 0.000000e+00 0.000000e+00 0.000000e+00 0.000000e+00 6.060414e-01 3.939586e-01 0.000000e+00 0.000000e+00 0.000000e+00 0.000000e+00 0.000000e+00 0.000000e+00 0.000000e+00 0.000000e+00
 0.000000e+00 0.000000e+00 0.000000e+00 0.000000e+00 0.000000e+00 0.000000e+00 1.885798e-01 8.114202e-01 0.000000e+00 0.000000e+00 0.000000e+00 0.000000e+00 0.000000e+00 0.000000e+00 0.000000e+00
 0.000000e+00 0.000000e+00 0.000000e+00 0.000000e+00 0.000000e+00 0.000000e+00 0.000000e+00 3.081417e-01 6.918583e-01 0.000000e+00 0.000000e+00 0.000000e+00 0.000000e+00 0.000000e+00 0.000000e+00
 0.000000e+00 0.000000e+00 0.000000e+00 0.000000e+00 0.000000e+00 0.000000e+00 0.000000e+00 0.000000e+00 1.274766e-02 9.872524e-01 0.000000e+00 0.000000e+00 0.000000e+00 0.000000e+00 0.000000e+00
 0.000000e+00 0.000000e+00 0.000000e+00 0.000000e+00 0.000000e+00 0.000000e+00 0.000000e+00 0.000000e+00 0.000000e+00 5.504264e-03 9.944957e-01 0.000000e+00 0.000000e+00 0.000000e+00 0.000000e+00
 0.000000e+00 0.000000e+00 0.000000e+00 0.000000e+00 0.000000e+00 0.000000e+00 0.000000e+00 0.000000e+00 0.000000e+00 0.000000e+00 2.483101e-01 7.516899e-01 0.000000e+00 0.000000e+00 0.000000e+00
 0.000000e+00 0.000000e+00 0.000000e+00 0.000000e+00 0.000000e+00 0.000000e+00 0.000000e+00 0.000000e+00 0.000000e+00 0.000000e+00 0.000000e+00 4.082565e-02 9.591743e-01 0.000000e+00 0.000000e+00
 0.000000e+00 0.000000e+00 0.000000e+00 0.000000e+00 0.000000e+00 0.000000e+00 0.000000e+00 0.000000e+00 0.000000e+00 0.000000e+00 0.000000e+00 0.000000e+00 2.439860e-02 9.756014e-01 0.000000e+00
 0.000000e+00 0.000000e+00 0.000000e+00 0.000000e+00 0.000000e+00 0.000000e+00 0.000000e+00 0.000000e+00 0.000000e+00 0.000000e+00 0.000000e+00 0.000000e+00 0.000000e+00 8.428985e-02 9.157102e-01
 0.000000e+00 0.000000e+00 0.000000e+00 0.000000e+00 0.000000e+00 0.000000e+00 0.000000e+00 0.000000e+00 0.000000e+00 0.000000e+00 0.000000e+00 0.000000e+00 0.000000e+00 0.000000e+00 0.000000e+00
<ENDHMM>
~h "#u"
<BEGINHMM>
<NUMSTATES> 15
<STATE> 2
<NUMMIXES> 2
<MIXTURE> 1 4.123261e-01
<MEAN> 39
 8.177794e+00 -4.374822e+00 -7.615451e+00 1.850926e+00 4.320341e-01 -7.798106e+00 -4.409250e+00 2.416992e+00 2.134028e+00 5.814389e-01 -3.172215e+00 -2.711066e+00 8.653921e-01 1.340138e+00 7.878177e-01 -1.164525e+00 -5.175147e-01 1.877932e+00 1.236185e+00 -1.319213e+00 -1.109323e+00 6.906689e-01 1.399409e+00 3.999270e-01 -6.006356e-01 -7.947721e-03 -2.047280e-01 1.821046e-01 3.833460e-01 -5.279229e-01 -3.543028e-01 6.412637e-01 4.413584e-01 -4.963056e-01 -4.646628e-01 1.029685e-01 2.809826e-01 1.204809e-01 1.905604e-04
<VARIANCE> 39
 1.526755e+01 2.588299e+01 2.760472e+01 2.222500e+01 3.992190e+01 4.388599e+01 4.562040e+01 4.867769e+01 3.474561e+01 4.533809e+01 4.281583e+01 5.010796e+01 6.952966e-03 5.258160e-01 7.302183e-01 1.944173e+00 2.408226e+00 3.314934e+00 3.806231e+00 4.634473e+00 4.120678e+00 3.547684e+00 2.752859e+00 3.147705e+00 3.237346e+00 1.431677e-04 7.039920e-02 1.811752e-01 2.343881e-01 5.306251e-01 5.555524e-01 7.709283e-01 8.518372e-01 8.427836e-01 6.648057e-01 7.374645e-01 5.110947e-01 5.488956e-01 1.932010e-05
<GCONST> 9.067061e+01
<MIXTURE> 2 5.876725e-01
<MEAN> 39
 1.019831e+01 6.290199e-01 -7.770236e+00 -4.414817e+00 -3.256143e-01 -1.152707e+00 -8.056593e-01 -1.683158e+00 -2.104674e+00 1.030841e+00 5.380253e-01 -5.532601e-01 8.065804e-01 4.205155e-01 -5.864441e-02 -5.626502e-01 1.030866e-01 -1.615209e-01 -4.295850e-01 -1.421449e-01 -7.936323e-02 -4.255954e-01 -4.242105e-01 -4.840211e-01 -5.969618e-01 2.939170e-02 -3.308363e-01 -3.100366e-02 3.545277e-01 2.607272e-01 1.668723e-01 1.061934e-01 2.202520e-02 1.326706e-01 2.890375e-01 4.075690e-02 2.667459e-02 7.852053e-02 -1.349257e-02
<VARIANCE> 39
 2.761228e+01 3.552269e+01 3.215476e+01 2.645054e+01 3.456575e+01 3.145522e+01 3.716199e+01 3.380029e+01 3.106311e+01 3.658126e+01 4.283679e+01 4.361546e+01 1.446950e-02 9.213181e-01 1.284926e+00 1.936463e+00 2.004786e+00 1.709853e+00 2.206137e+00 2.612776e+00 2.852205e+00 2.482651e+00 2.930449e+00 3.311239e+00 4.025682e+00 9.665464e-04 2.870616e-01 2.140031e-01 4.227315e-01 3.855861e-01 3.524591e-01 4.462325e-01 5.840651e-01 5.413056e-01 4.820758e-01 5.007418e-01 6.008358e-01 5.623735e-01 3.376716e-04
<GCONST> 9.416048e+01
<STATE> 3
<NUMMIXES> 2
<MIXTURE> 1 5.649313e-01
<MEAN> 39
 1.083441e+01 -7.207648e-01 -9.394982e+00 -2.173686e+00 1.709502e+00 -1.377553e+00 -3.390468e+00 -2.703387e+00 -2.691066e-01 3.212781e+00 -6.538328e-01 -4.044161e+00 8.583713e-01 4.521035e-01 5.061114e-01 1.885626e-01 -1.488987e-01 3.893288e-02 8.541737e-01 5.321447e-01 -3.214115e-01 -4.481552e-01 3.157112e-01 9.928610e-01 5.404694e-01 -2.314754e-03 -1.034051e-01 -4.522634e-02 1.702735e-01 1.058218e-01 -1.183788e-01 -7.778078e-02 1.966768e-01 2.478544e-01 -4.670914e-03 -2.473084e-01 -2.411515e-02 2.503087e-01 -2.651648e-03
<VARIANCE> 39
 1.868644e+01 3.032850e+01 2.797574e+01 2.069876e+01 3.018114e+01 2.663173e+01 2.379671e+01 3.044277e+01 3.166603e+01 3.407302e+01 3.378520e+01 4.349777e+01 6.813945e-03 3.636127e-01 7.633326e-01 9.618648e-01 1.406799e+00 1.301050e+00 1.761239e+00 1.902082e+00 2.057943e+00 2.200761e+00 2.079616e+00 2.239947e+00 2.543343e+00 2.354476e-04 5.283683e-02 1.136304e-01 1.586423e-01 1.996944e-01 2.586798e-01 3.370215e-01 3.022355e-01 4.130462e-01 3.594595e-01 4.016820e-01 3.825970e-01 3.947059e-01 3.195139e-05
<GCONST> 7.579752e+01
<MIXTURE> 2 4.350683e-01
<MEAN> 39
 3.564954e+00 -1.771006e-02 -3.673737e+00 -2.188923e-01 -9.783941e-01 -6.452217e-01 -3.732595e-01 -9.292659e-01 -6.329952e-01 -3.992708e-01 2.703591e-01 -2.415326e-01 9.374269e-01 2.798170e-02 8.061460e-02 -6.651504e-03 -6.379312e-03 1.747873e-02 1.152680e-01 -1.702189e-02 5.366392e-03 6.255443e-02 4.900489e-03 3.811766e-02 -2.490880e-02 -3.425101e-03 -7.468686e-04 1.244326e-02 -1.127154e-02 -3.650421e-02 1.460478e-02 5.415715e-03 -2.223208e-02 -2.842126e-02 -2.004660e-02 3.502681e-02 5.137742e-03 -2.182619e-02 -1.018498e-03
<VARIANCE> 39
 8.975708e+00 9.475121e+00 1.756308e+01 9.888109e+00 9.306897e+00 1.104877e+01 1.282164e+01 1.296660e+01 1.446319e+01 1.472509e+01 1.274307e+01 1.808382e+01 2.940578e-03 1.315994e-01 3.530276e-01 4.388842e-01 5.158833e-01 6.668867e-01 7.243191e-01 9.562712e-01 1.005372e+00 1.101181e+00 9.021281e-01 1.002237e+00 9.824259e-01 5.146254e-05 2.117660e-02 5.153446e-02 7.505105e-02 8.644161e-02 1.091260e-01 1.286461e-01 1.685863e-01 1.697302e-01 1.799349e-01 1.478996e-01 1.801468e-01 1.697299e-01 5.445204e-06
<GCONST> 4.186505e+01
<STATE> 4
<NUMMIXES> 2
<MIXTURE> 1 5.200402e-01
<MEAN> 39
 1.234535e+01 2.907861e+00 -8.655031e+00 -2.057495e+00 3.371011e+00 1.059883e+00 -9.514255e-01 -9.302502e-01 7.185526e-03 4.833233e+00 3.774490e+00 4.482908e-01 7.951464e-01 2.029405e-01 3.029995e-01 2.080902e-01 -1.727841e-02 2.568537e-02 4.072236e-01 2.169975e-01 -1.144658e-01 6.539873e-02 1.081641e-01 3.492531e-01 2.645762e-01 -8.455655e-03 -5.309488e-02 -5.216677e-02 1.329891e-02 8.929903e-03 -2.530341e-02 -3.425086e-02 -3.457597e-02 1.277680e-02 9.392325e-03 -1.698905e-02 -9.446020e-02 -8.537220e-02 -5.762752e-04
<VARIANCE> 39
 8.240488e+00 2.777244e+01 2.024408e+01 1.974111e+01 2.134934e+01 1.854870e+01 1.960390e+01 2.265883e+01 2.568097e+01 2.491664e+01 2.133104e+01 2.413071e+01 7.377898e-03 1.503360e-01 3.138909e-01 4.482757e-01 5.208547e-01 4.722306e-01 7.465558e-01 7.734722e-01 9.315439e-01 9.606109e-01 9.431210e-01 1.037758e+00 9.722978e-01 6.716752e-05 1.713925e-02 4.687485e-02 6.391741e-02 9.164217e-02 8.672410e-02 1.263406e-01 1.360318e-01 1.719300e-01 1.475390e-01 1.678305e-01 1.844634e-01 1.507495e-01 6.852867e-06
<GCONST> 4.768985e+01
<MIXTURE> 2 4.799525e-01
<MEAN> 39
 1.218821e+01 2.207681e+00 -8.480236e+00 -4.284893e+00 1.088426e+00 8.641653e-01 -3.679403e-01 -1.825205e+00 -3.902696e+00 2.414796e+00 2.065853e+00 7.901694e-01 8.228100e-01 1.219799e-01 2.530856e-01 1.446482e-01 -7.799973e-02 -1.200569e-01 1.878133e-01 3.034894e-01 1.534993e-01 -1.293314e-01 -2.488366e-01 1.868157e-02 1.806259e-01 -3.306091e-03 -4.949708e-02 -1.059445e-01 1.964109e-02 1.401588e-01 6.899102e-02 -9.140708e-02 -1.911722e-01 6.660724e-02 2.848728e-01 9.961908e-02 -1.202450e-01 -1.746527e-01 -1.904998e-03
<VARIANCE> 39
 1.219435e+01 2.959283e+01 3.229228e+01 1.736598e+01 2.643923e+01 2.305299e+01 2.746774e+01 2.771863e+01 2.293171e+01 2.840894e+01 3.204823e+01 3.659634e+01 6.540190e-03 2.634138e-01 5.849724e-01 8.758079e-01 9.064535e-01 9.972341e-01 1.083663e+00 1.353367e+00 1.354054e+00 1.565638e+00 1.594419e+00 1.598346e+00 1.804899e+00 1.849765e-04 4.623706e-02 8.246716e-02 1.293099e-01 1.502700e-01 1.673969e-01 2.392233e-01 2.579699e-01 2.936224e-01 2.886719e-01 2.904133e-01 3.116497e-01 3.068366e-01 1.542425e-05
<GCONST> 6.620656e+01
<STATE> 5
<NUMMIXES> 2
<MIXTURE> 1 5.931919e-01
<MEAN> 39
 1.303605e+01 3.277274e+00 -6.307088e+00 -1.732790e+00 1.597811e+00 3.583328e+00 6.804687e-01 -4.458677e-01 1.245947e-01 3.681366e+00 4.599803e+00 1.636843e+00 7.344771e-01 -6.978954e-02 3.415017e-02 2.996996e-01 2.876715e-01 4.471438e-01 2.830950e-01 -1.711103e-01 2.225645e-02 4.792437e-01 5.908304e-01 2.904662e-01 -1.268967e-01 -1.213945e-02 -1.144572e-01 -1.133340e-01 -3.404548e-02 1.073655e-01 1.013078e-01 -2.658044e-01 -2.276061e-01 1.419811e-02 1.713559e-01 5.301128e-02 -2.789907e-01 -2.381367e-01 3.391063e-04
<VARIANCE> 39
 1.436938e+01 2.970772e+01 2.561487e+01 1.724856e+01 1.966885e+01 1.734272e+01 2.154345e+01 2.383804e+01 2.239187e+01 2.404656e+01 2.391843e+01 3.040552e+01 1.072478e-02 2.594362e-01 6.343938e-01 1.053369e+00 8.421696e-01 1.046360e+00 1.139143e+00 1.464300e+00 1.571777e+00 1.547019e+00 1.415044e+00 1.726537e+00 1.437789e+00 1.636289e-04 4.610197e-02 8.886128e-02 1.402763e-01 1.577161e-01 1.657349e-01 2.536829e-01 2.442289e-01 2.868582e-01 3.184846e-01 2.681700e-01 3.384369e-01 2.810688e-01 1.733712e-05
<GCONST> 6.538914e+01
<MIXTURE> 2 4.068075e-01
<MEAN> 39
 1.267225e+01 -1.295606e+00 -8.447680e+00 -3.804629e+00 1.389276e-01 7.689032e-02 -1.802649e+00 -3.807143e+00 -3.046121e+00 -9.267847e-01 -2.114577e+00 -5.752305e+00 8.517194e-01 -3.879223e-03 -3.683674e-01 5.984251e-02 6.397137e-01 1.860437e-01 -1.731346e-01 -6.474080e-01 5.337220e-02 6.415069e-01 5.452908e-01 -1.409401e-01 -6.428641e-01 -3.968213e-03 -5.252355e-02 -8.433640e-02 5.650536e-02 3.268367e-01 2.006806e-01 -1.963980e-01 -1.569609e-01 2.749355e-01 3.998905e-01 2.531278e-01 5.767999e-02 1.149894e-01 -1.027913e-03
<VARIANCE> 39
 9.977882e+00 3.505668e+01 1.946728e+01 2.467110e+01 3.239064e+01 3.687739e+01 2.736609e+01 3.151418e+01 4.001014e+01 4.279942e+01 5.180807e+01 5.970105e+01 6.035334e-03 3.276921e-01 8.861573e-01 1.147733e+00 1.447308e+00 1.621015e+00 1.666614e+00 1.929846e+00 2.693688e+00 2.024316e+00 2.417554e+00 2.415488e+00 2.995596e+00 1.251701e-04 4.301753e-02 1.605213e-01 1.821583e-01 2.664135e-01 2.825721e-01 3.841920e-01 4.106487e-01 5.440058e-01 3.939073e-01 4.219323e-01 5.078947e-01 5.801309e-01 9.689029e-06
<GCONST> 7.813954e+01
<STATE> 6
<NUMMIXES> 2
<MIXTURE> 1 5.045874e-01
<MEAN> 39
 1.168695e+01 1.887520e+00 -6.477943e+00 -1.112893e+00 3.051365e+00 1.837351e+00 -1.172341e+00 -1.523098e+00 1.193794e+00 4.994755e+00 2.945579e+00 -9.163089e-01 7.724264e-01 -1.389833e-01 -1.020745e-02 3.216372e-01 4.525708e-01 2.843077e-01 -1.403955e-01 -1.444456e-01 3.730902e-01 6.167116e-01 3.019407e-01 -2.830723e-01 -2.041630e-01 -1.202895e-02 -1.087942e-01 -6.153802e-02 1.184081e-01 4.491613e-02 -3.060402e-02 -2.011202e-01 -2.149940e-04 2.199583e-01 5.642111e-03 -2.658000e-01 -2.095995e-01 3.292719e-02 -1.311144e-03
<VARIANCE> 39
 2.025790e+01 3.422736e+01 2.813094e+01 2.113434e+01 2.373889e+01 2.877912e+01 2.130086e+01 2.509851e+01 2.292859e+01 3.084181e+01 3.280391e+01 3.090510e+01 1.270985e-02 3.179440e-01 4.927045e-01 9.045597e-01 9.989977e-01 9.036733e-01 1.146728e+00 1.503616e+00 1.514744e+00 1.849638e+00 1.329459e+00 1.383105e+00 1.610180e+00 1.528012e-04 4.463427e-02 8.752520e-02 1.373006e-01 1.658470e-01 1.590061e-01 2.544976e-01 2.498020e-01 2.680091e-01 2.354726e-01 2.947773e-01 2.989781e-01 2.510055e-01 1.288624e-05
<GCONST> 6.659485e+01
<MIXTURE> 2 4.954135e-01
<MEAN> 39
 1.281099e+01 -1.352994e-03 -8.618361e+00 -4.717457e-01 4.637981e+00 1.145330e+00 -4.043894e+00 -3.374144e+00 1.033132e+00 7.258327e+00 2.445247e+00 -2.798043e+00 8.006986e-01 -5.221919e-01 -6.756603e-01 2.506710e-01 1.526090e+00 7.005616e-01 -1.536681e+00 -1.503376e+00 1.107833e+00 2.207675e+00 6.841814e-01 -1.321401e+00 -1.192617e+00 -3.420113e-03 -2.790556e-01 -1.067808e-01 4.326374e-01 3.237918e-01 -4.942575e-01 -8.656974e-01 3.530289e-01 9.780411e-01 8.731980e-02 -8.200561e-01 -4.356266e-01 3.160249e-01 3.941822e-04
<VARIANCE> 39
 9.462296e+00 3.348824e+01 2.325032e+01 1.948627e+01 2.168946e+01 2.742783e+01 2.669987e+01 2.646339e+01 3.004983e+01 3.014276e+01 3.793867e+01 4.613457e+01 8.370253e-03 3.107823e-01 7.319853e-01 1.304286e+00 1.071189e+00 1.535454e+00 1.775656e+00 2.201874e+00 2.156648e+00 1.988470e+00 2.689730e+00 2.199350e+00 2.575177e+00 1.735036e-04 5.644532e-02 1.333106e-01 2.130387e-01 2.104202e-01 2.624896e-01 3.695726e-01 3.784380e-01 3.231162e-01 4.008430e-01 3.840766e-01 4.376086e-01 4.514327e-01 1.740204e-05
<GCONST> 7.527935e+01
<STATE> 7
<NUMMIXES> 2
<MIXTURE> 1 4.731950e-01
<MEAN> 39
 1.107404e+01 2.692549e+00 -5.836517e+00 -1.164324e+00 2.406208e+00 1.257610e+00 -9.862775e-01 -1.003274e-01 1.451724e+00 3.765434e+00 1.739799e+00 -1.315756e+00 7.481843e-01 -1.594870e-01 4.658166e-03 5.390466e-01 2.300774e-01 2.345478e-01 -3.527030e-03 1.688263e-01 5.221813e-01 2.132382e-01 -2.606605e-01 -2.053900e-01 2.749416e-01 -1.607206e-02 -1.318774e-01 -2.178026e-02 2.168268e-01 -2.819987e-02 -1.795322e-02 -3.303485e-02 1.035472e-01 3.778584e-02 -1.277431e-01 -2.651268e-01 -6.945542e-02 7.562993e-02 -2.460196e-03
<VARIANCE> 39
 2.347089e+01 3.277188e+01 2.925660e+01 2.357505e+01 2.554115e+01 3.113003e+01 2.077707e+01 2.351575e+01 2.720889e+01 2.604906e+01 3.394742e+01 3.934738e+01 1.521050e-02 3.577642e-01 5.576907e-01 1.067658e+00 1.058252e+00 9.291096e-01 1.332315e+00 1.551240e+00 1.585650e+00 1.615498e+00 1.750396e+00 1.840717e+00 1.767377e+00 1.458779e-04 6.053190e-02 9.625869e-02 2.253003e-01 2.055029e-01 2.503315e-01 2.001562e-01 2.799851e-01 2.717480e-01 2.806370e-01 2.876661e-01 2.840486e-01 3.296547e-01 2.352785e-05
<GCONST> 7.098415e+01
<MIXTURE> 2 5.268050e-01
<MEAN> 39
 1.181034e+01 -1.627650e+00 -7.935737e+00 2.551246e+00 5.851984e+00 -2.717273e+00 -6.529721e+00 -1.582728e-01 5.849991e+00 7.398023e+00 -1.585211e+00 -5.718352e+00 7.949032e-01 -8.973503e-01 -7.733976e-01 1.090147e+00 1.916879e+00 -4.918855e-01 -2.805421e+00 -1.966457e-01 3.134131e+00 1.694846e+00 -1.521892e+00 -1.697907e+00 2.907594e-01 -4.220373e-03 -3.363397e-01 6.349809e-02 7.719033e-01 -1.768426e-01 -1.016096e+00 -1.852862e-01 1.169486e+00 3.763422e-01 -9.445562e-01 -8.490357e-01 4.838666e-01 7.702409e-01 1.711117e-04
<VARIANCE> 39
 1.060661e+01 2.964322e+01 2.757408e+01 1.754258e+01 1.956042e+01 2.761102e+01 2.755026e+01 2.649962e+01 3.199247e+01 3.532588e+01 3.618594e+01 3.863423e+01 9.976614e-03 4.409184e-01 8.005224e-01 1.499218e+00 1.490878e+00 1.880185e+00 2.459557e+00 2.618592e+00 2.297663e+00 2.572250e+00 2.645673e+00 2.335431e+00 2.997253e+00 2.559460e-04 9.428103e-02 1.914776e-01 3.073812e-01 2.883860e-01 3.306188e-01 4.124437e-01 4.320248e-01 3.813032e-01 3.801998e-01 5.336098e-01 4.279981e-01 4.485230e-01 2.801241e-05
<GCONST> 8.087968e+01
<STATE> 8
<NUMMIXES> 2
<MIXTURE> 1 4.947722e-01
<MEAN> 39
 1.078296e+01 -2.815672e+00 -5.479165e+00 5.566391e+00 4.173279e+00 -7.471769e+00 -5.663018e+00 6.001707e+00 7.782270e+00 2.877560e+00 -4.663494e+00 -2.975507e+00 7.932549e-01 -1.345944e+00 -5.671902e-01 2.307197e+00 1.304951e+00 -2.404472e+00 -2.566208e+00 2.173115e+00 2.959811e+00 -6.204405e-01 -2.405753e+00 6.900010e-02 1.550365e+00 -3.144708e-03 -3.474047e-01 3.848902e-01 7.750781e-01 -8.110280e-01 -8.383310e-01 8.542516e-01 9.828627e-01 -9.495110e-01 -1.072360e+00 1.116778e-01 8.690194e-01 1.414760e-01 -1.092890e-03
<VARIANCE> 39
 1.099928e+01 2.694565e+01 2.932687e+01 1.534420e+01 1.949510e+01 2.883774e+01 3.290716e+01 2.766475e+01 2.985838e+01 3.752384e+01 3.283178e+01 3.591217e+01 1.000578e-02 5.631013e-01 1.100536e+00 2.126734e+00 1.844013e+00 2.443285e+00 3.270983e+00 2.825654e+00 2.634917e+00 2.590064e+00 3.015732e+00 2.902313e+00 2.521688e+00 2.006826e-04 1.267775e-01 3.151662e-01 4.372918e-01 3.756502e-01 3.955374e-01 5.081604e-01 5.053191e-01 4.935022e-01 5.002047e-01 5.648125e-01 4.532325e-01 5.174449e-01 3.914874e-05
<GCONST> 8.573751e+01
<MIXTURE> 2 5.052272e-01
<MEAN> 39
 1.027548e+01 3.293103e+00 -3.590941e+00 -1.717951e+00 3.232822e+00 2.964692e+00 2.367423e-01 4.705149e-01 9.547685e-01 2.326699e+00 1.858881e+00 -3.146519e-01 6.687272e-01 -4.629520e-01 -6.678316e-02 9.593878e-01 3.312523e-01 3.448763e-01 -6.611817e-02 1.996812e-01 2.171610e-01 5.977241e-02 -6.097955e-01 -4.319690e-01 4.934420e-02 -1.919495e-02 -1.355511e-01 1.192590e-03 2.211602e-01 1.242995e-01 3.042421e-02 -2.386266e-02 -6.448006e-03 -7.568687e-02 -8.489493e-02 -8.944939e-02 -1.605935e-02 -1.365257e-02 -1.521867e-03
<VARIANCE> 39
 2.587768e+01 2.625985e+01 4.014151e+01 2.343834e+01 2.845177e+01 2.813215e+01 2.213558e+01 2.409985e+01 3.058716e+01 3.133646e+01 3.104414e+01 3.641721e+01 2.482152e-02 5.501019e-01 8.025416e-01 1.587690e+00 1.448164e+00 1.246219e+00 1.727553e+00 1.832448e+00 1.688097e+00 1.963660e+00 2.555456e+00 1.983120e+00 2.013675e+00 3.155080e-04 9.190219e-02 1.322799e-01 3.232334e-01 2.074142e-01 2.566329e-01 2.703058e-01 3.131120e-01 2.772993e-01 4.317232e-01 3.614884e-01 3.617830e-01 3.256538e-01 6.480508e-05
<GCONST> 7.919238e+01
<STATE> 9
<NUMMIXES> 2
<MIXTURE> 1 4.332621e-01
<MEAN> 39
 9.951775e+00 3.029724e+00 -3.652982e+00 -1.017469e+00 3.224708e+00 1.751566e+00 -2.329822e-01 5.500679e-01 9.621584e-01 1.982706e+00 1.232829e+00 -3.725407e-01 6.949843e-01 -6.123064e-01 -2.035416e-02 1.289711e+00 3.995974e-01 3.296371e-01 -5.556814e-03 2.759766e-01 1.438320e-01 -1.761610e-01 -5.581663e-01 -2.640688e-01 1.120927e-01 -2.304078e-02 -1.951298e-01 4.353020e-02 2.515680e-01 1.033452e-01 4.382130e-02 1.075341e-01 -2.632738e-02 -1.810180e-01 -6.532168e-02 7.416695e-03 3.579664e-02 1.789629e-03 -4.213697e-03
<VARIANCE> 39
 2.729284e+01 2.893180e+01 4.240537e+01 2.675340e+01 3.033951e+01 3.084189e+01 2.296731e+01 2.786473e+01 3.441243e+01 3.626454e+01 3.224801e+01 3.323057e+01 1.995204e-02 7.208550e-01 1.094133e+00 2.706692e+00 1.841479e+00 2.075817e+00 1.635886e+00 2.113544e+00 2.052280e+00 1.991103e+00 2.379744e+00 1.985298e+00 2.173875e+00 3.686040e-04 1.098354e-01 1.778405e-01 2.777644e-01 2.597972e-01 2.566590e-01 3.537421e-01 2.985564e-01 2.991295e-01 4.276443e-01 4.285266e-01 4.344674e-01 3.323283e-01 6.214758e-05
<GCONST> 8.335075e+01
<MIXTURE> 2 5.667376e-01
<MEAN> 39
 8.508530e+00 -3.719281e+00 -1.834718e+00 6.946969e+00 -9.167439e-01 -1.132477e+01 2.309981e-01 1.046427e+01 3.931928e+00 -1.931485e+00 -2.041821e+00 7.695017e-01 7.917907e-01 -1.846133e+00 9.817616e-02 3.587212e+00 -4.306385e-01 -3.451654e+00 -4.321446e-01 3.294296e+00 3.509612e-01 -2.099838e+00 -1.046885e+00 1.436276e+00 9.395526e-01 -4.699331e-03 -1.913690e-01 7.114599e-01 3.566007e-01 -1.019709e+00 1.982182e-01 1.594283e+00 -2.252759e-01 -1.734588e+00 -2.270488e-01 8.662078e-01 3.163009e-01 -4.573285e-01 -4.497828e-03
<VARIANCE> 39
 1.341364e+01 2.550467e+01 3.307889e+01 1.967036e+01 2.914657e+01 3.577909e+01 4.586634e+01 2.996545e+01 3.596178e+01 3.735112e+01 4.087695e+01 3.838048e+01 1.225187e-02 9.336106e-01 2.390512e+00 3.542464e+00 2.961118e+00 2.553051e+00 3.560900e+00 3.128606e+00 3.561774e+00 2.836145e+00 4.102659e+00 2.975145e+00 3.216775e+00 2.854865e-04 1.911472e-01 3.303491e-01 5.032034e-01 5.451434e-01 6.684636e-01 6.875090e-01 7.032919e-01 5.957231e-01 6.973553e-01 6.284689e-01 6.605573e-01 5.621839e-01 6.704455e-05
<GCONST> 9.551859e+01
<STATE> 10
<MEAN> 39
 7.238581e+00 -6.112420e-01 1.529682e+00 2.360816e+00 -2.315772e+00 -4.516241e+00 3.378709e+00 4.243348e+00 5.988996e-02 6.161169e-01 1.496814e+00 -4.006493e-01 7.353976e-01 -1.386376e+00 8.209879e-01 2.702888e+00 -8.995839e-01 -1.039036e+00 1.286888e+00 8.781525e-01 -1.459889e+00 -6.666278e-01 1.605089e-01 3.842607e-01 -1.300566e-01 -1.824409e-02 -8.406430e-02 3.960185e-01 -2.506509e-01 -1.568634e-01 7.635905e-01 7.403699e-01 -7.548872e-01 -5.887206e-01 4.088636e-01 3.030230e-01 -1.980424e-01 -1.244574e-01 -7.750389e-03
<VARIANCE> 39
 2.303392e+01 3.945547e+01 5.423867e+01 3.534411e+01 5.994426e+01 6.664435e+01 4.755960e+01 4.452541e+01 3.413946e+01 3.768428e+01 3.820824e+01 4.184079e+01 1.918387e-02 1.498775e+00 2.939004e+00 4.755251e+00 4.716504e+00 4.350298e+00 4.017863e+00 3.565712e+00 4.319972e+00 3.693377e+00 3.694949e+00 3.649177e+00 2.798866e+00 5.500226e-04 2.582187e-01 4.130284e-01 5.384220e-01 5.279734e-01 9.525603e-01 8.859470e-01 1.000169e+00 7.023960e-01 6.227062e-01 6.486797e-01 6.470290e-01 5.439122e-01 1.080858e-04
<GCONST> 1.050997e+02
<STATE> 11
<MEAN> 39
 5.700632e+00 1.206928e+00 4.671640e+00 -6.619099e-02 -2.645713e+00 -1.300588e+00 2.515931e+00 5.106775e-01 6.646810e-01 1.855707e+00 4.630317e-01 -1.258253e+00 7.115286e-01 -1.355910e+00 1.378587e+00 1.952222e+00 -5.909194e-01 5.237355e-01 1.809358e+00 -5.589378e-01 -1.561921e+00 2.648154e-01 4.754371e-02 -1.962343e-01 1.175655e-01 -2.924578e-02 -7.154690e-02 2.062061e-02 -7.428522e-01 3.433815e-01 8.270906e-01 1.624094e-01 -5.703062e-01 2.415982e-01 3.897167e-01 -9.375017e-03 -7.101437e-02 1.148314e-01 -1.111766e-02
<VARIANCE> 39
 2.870807e+01 4.182468e+01 7.848127e+01 3.800182e+01 7.002071e+01 4.697772e+01 4.660793e+01 3.902608e+01 3.800017e+01 4.039920e+01 4.240630e+01 4.289035e+01 2.163695e-02 1.773944e+00 3.562879e+00 3.040674e+00 4.733016e+00 3.129999e+00 5.363757e+00 3.920391e+00 4.672740e+00 3.868234e+00 3.743707e+00 3.986446e+00 2.664459e+00 8.817029e-04 3.914557e-01 5.106326e-01 9.800055e-01 7.528372e-01 1.182336e+00 5.866306e-01 9.212911e-01 6.997426e-01 6.694859e-01 7.446697e-01 6.649256e-01 5.490878e-01 2.010642e-04
<GCONST> 1.086885e+02
<STATE> 12
<MEAN> 39
 4.549812e+00 4.029689e+00 5.923370e+00 -1.684812e-01 -3.618129e-01 5.820863e-01 -1.989198e-01 -5.225941e-01 1.598869e+00 5.401334e-01 -3.103586e-01 -2.398507e-01 6.738966e-01 -1.335842e+00 9.748614e-01 7.101747e-01 6.411615e-01 1.575826e+00 1.424270e+00 -8.263009e-01 -4.751067e-01 2.413531e-01 -3.390943e-01 2.702392e-02 4.643642e-01 -4.778386e-02 -2.062444e-01 -5.307506e-01 -8.288851e-01 3.954405e-01 2.980587e-01 -2.202594e-01 1.223755e-01 7.011158e-01 1.913233e-01 1.179002e-01 1.639203e-01 8.674118e-02 -1.320616e-02
<VARIANCE> 39
 3.112019e+01 4.467853e+01 7.836058e+01 4.688496e+01 5.564531e+01 4.625311e+01 4.280576e+01 4.174187e+01 4.656765e+01 4.920774e+01 4.576638e+01 3.922639e+01 2.229428e-02 2.824481e+00 3.543550e+00 2.520853e+00 3.827893e+00 4.347162e+00 4.888815e+00 4.029606e+00 3.344439e+00 3.619312e+00 3.669793e+00 3.343472e+00 2.711103e+00 1.820464e-03 3.854946e-01 6.939790e-01 1.011068e+00 9.743931e-01 7.655768e-01 7.139182e-01 9.391102e-01 9.059028e-01 8.880140e-01 8.786207e-01 7.174225e-01 5.413729e-01 3.206071e-04
<GCONST> 1.112628e+02
<STATE> 13
<MEAN> 39
 3.064334e+00 4.344676e+00 6.210431e+00 2.764499e+00 2.548000e+00 1.766793e+00 -5.977259e-01 -5.587241e-01 9.627830e-01 -4.633331e-02 4.292480e-01 5.727578e-01 5.952537e-01 -2.022206e+00 -2.946070e-01 -3.571362e-01 6.553997e-01 1.130766e+00 1.034223e+00 7.546450e-02 7.085670e-01 6.035148e-01 2.232044e-01 4.910236e-01 4.713704e-01 -6.900211e-02 -2.611823e-01 -5.435878e-01 -6.737554e-01 -1.597891e-01 -3.085914e-01 -3.030331e-01 3.522452e-01 6.084377e-01 1.673905e-01 2.152311e-01 1.335209e-01 -2.745977e-02 -4.940520e-03
<VARIANCE> 39
 3.916391e+01 4.363359e+01 7.056727e+01 5.231692e+01 4.094130e+01 5.536305e+01 4.449535e+01 4.805637e+01 4.695146e+01 4.584019e+01 4.572620e+01 3.779759e+01 2.835527e-02 2.491878e+00 4.076985e+00 3.775817e+00 4.253466e+00 3.942744e+00 3.526330e+00 3.882939e+00 3.780384e+00 3.354601e+00 3.935304e+00 3.233145e+00 2.706733e+00 3.737863e-03 5.587283e-01 5.103440e-01 6.156119e-01 6.304232e-01 5.755396e-01 9.164519e-01 7.948802e-01 8.053847e-01 8.052649e-01 8.817898e-01 6.911269e-01 5.473617e-01 3.567580e-04
<GCONST> 1.113285e+02
<STATE> 14
<MEAN> 39
 -8.373001e-02 2.714769e+00 4.438364e+00 2.642010e+00 3.288249e+00 3.148266e+00 6.199850e-01 1.670439e+00 2.449351e+00 1.122625e+00 1.716959e+00 9.060555e-01 5.015863e-01 -2.249454e+00 -7.374424e-01 -9.561466e-01 4.328988e-03 4.043757e-01 6.189370e-01 5.036143e-01 1.168630e+00 7.162128e-01 4.756248e-01 5.081111e-01 2.751899e-01 -6.557830e-02 1.279979e-01 -1.785128e-01 -2.543591e-01 -2.402544e-01 -3.961838e-01 -3.431401e-01 1.808804e-01 1.401100e-01 -7.004195e-02 5.518235e-02 -4.973729e-02 -9.606332e-02 1.024931e-02
<VARIANCE> 39
 4.791719e+01 4.773477e+01 5.702511e+01 5.203269e+01 3.823635e+01 5.346944e+01 3.967535e+01 4.401926e+01 4.127361e+01 4.320629e+01 3.771237e+01 3.448867e+01 5.417674e-02 2.690087e+00 4.076857e+00 4.556672e+00 3.938160e+00 3.106950e+00 3.376130e+00 4.289656e+00 4.671160e+00 3.775990e+00 4.408943e+00 3.560354e+00 3.095688e+00 4.733976e-03 4.231533e-01 4.432878e-01 3.987332e-01 5.600603e-01 6.023478e-01 7.377010e-01 5.380259e-01 5.900921e-01 6.622379e-01 6.452210e-01 6.099489e-01 5.495327e-01 4.840408e-04
<GCONST> 1.100188e+02
<TRANSP> 15
 0.000000e+00 1.000000e+00 0.000000e+00 0.000000e+00 0.000000e+00 0.000000e+00 0.000000e+00 0.000000e+00 0.000000e+00 0.000000e+00 0.000000e+00 0.000000e+00 0.000000e+00 0.000000e+00 0.000000e+00
 0.000000e+00 6.822448e-01 3.177552e-01 0.000000e+00 0.000000e+00 0.000000e+00 0.000000e+00 0.000000e+00 0.000000e+00 0.000000e+00 0.000000e+00 0.000000e+00 0.000000e+00 0.000000e+00 0.000000e+00
 0.000000e+00 0.000000e+00 7.347249e-01 2.652750e-01 0.000000e+00 0.000000e+00 0.000000e+00 0.000000e+00 0.000000e+00 0.000000e+00 0.000000e+00 0.000000e+00 0.000000e+00 0.000000e+00 0.000000e+00
 0.000000e+00 0.000000e+00 0.000000e+00 7.742707e-01 2.257293e-01 0.000000e+00 0.000000e+00 0.000000e+00 0.000000e+00 0.000000e+00 0.000000e+00 0.000000e+00 0.000000e+00 0.000000e+00 0.000000e+00
 0.000000e+00 0.000000e+00 0.000000e+00 0.000000e+00 5.855618e-01 4.144382e-01 0.000000e+00 0.000000e+00 0.000000e+00 0.000000e+00 0.000000e+00 0.000000e+00 0.000000e+00 0.000000e+00 0.000000e+00
 0.000000e+00 0.000000e+00 0.000000e+00 0.000000e+00 0.000000e+00 3.321977e-01 6.678023e-01 0.000000e+00 0.000000e+00 0.000000e+00 0.000000e+00 0.000000e+00 0.000000e+00 0.000000e+00 0.000000e+00
 0.000000e+00 0.000000e+00 0.000000e+00 0.000000e+00 0.000000e+00 0.000000e+00 1.988579e-01 8.011422e-01 0.000000e+00 0.000000e+00 0.000000e+00 0.000000e+00 0.000000e+00 0.000000e+00 0.000000e+00
 0.000000e+00 0.000000e+00 0.000000e+00 0.000000e+00 0.000000e+00 0.000000e+00 0.000000e+00 2.663510e-01 7.336490e-01 0.000000e+00 0.000000e+00 0.000000e+00 0.000000e+00 0.000000e+00 0.000000e+00
 0.000000e+00 0.000000e+00 0.000000e+00 0.000000e+00 0.000000e+00 0.000000e+00 0.000000e+00 0.000000e+00 1.221887e-01 8.778113e-01 0.000000e+00 0.000000e+00 0.000000e+00 0.000000e+00 0.000000e+00
 0.000000e+00 0.000000e+00 0.000000e+00 0.000000e+00 0.000000e+00 0.000000e+00 0.000000e+00 0.000000e+00 0.000000e+00 1.237658e-01 8.762342e-01 0.000000e+00 0.000000e+00 0.000000e+00 0.000000e+00
 0.000000e+00 0.000000e+00 0.000000e+00 0.000000e+00 0.000000e+00 0.000000e+00 0.000000e+00 0.000000e+00 0.000000e+00 0.000000e+00 7.174708e-02 9.282529e-01 0.000000e+00 0.000000e+00 0.000000e+00
 0.000000e+00 0.000000e+00 0.000000e+00 0.000000e+00 0.000000e+00 0.000000e+00 0.000000e+00 0.000000e+00 0.000000e+00 0.000000e+00 0.000000e+00 1.546830e-01 8.453169e-01 0.000000e+00 0.000000e+00
 0.000000e+00 0.000000e+00 0.000000e+00 0.000000e+00 0.000000e+00 0.000000e+00 0.000000e+00 0.000000e+00 0.000000e+00 0.000000e+00 0.000000e+00 0.000000e+00 1.173112e-01 8.826887e-01 0.000000e+00
 0.000000e+00 0.000000e+00 0.000000e+00 0.000000e+00 0.000000e+00 0.000000e+00 0.000000e+00 0.000000e+00 0.000000e+00 0.000000e+00 0.000000e+00 0.000000e+00 0.000000e+00 5.365979e-02 9.463403e-01
 0.000000e+00 0.000000e+00 0.000000e+00 0.000000e+00 0.000000e+00 0.000000e+00 0.000000e+00 0.000000e+00 0.000000e+00 0.000000e+00 0.000000e+00 0.000000e+00 0.000000e+00 0.000000e+00 0.000000e+00
<ENDHMM>
~h "ba"
<BEGINHMM>
<NUMSTATES> 15
<STATE> 2
<NUMMIXES> 2
<MIXTURE> 1 5.576887e-01
<MEAN> 39
 -1.449207e+00 1.135494e+00 3.524908e+00 1.246911e+00 3.489281e+00 4.319657e+00 4.527406e+00 5.259081e+00 4.974723e+00 2.796963e+00 2.606060e+00 3.233188e-01 2.042117e-01 8.863907e-01 -1.656510e+00 -6.118190e-01 4.043872e-01 4.514848e-01 4.196726e-01 6.583894e-01 2.518969e-01 -2.050061e-01 5.777497e-01 4.559260e-01 8.171746e-01 1.481044e-01 5.039342e-01 -8.075874e-01 -5.214966e-01 3.083815e-01 1.403505e-01 -4.513701e-01 -3.239028e-01 -5.995377e-01 -9.312193e-01 -1.572181e-01 -1.744455e-01 2.568028e-01 6.069078e-02
<VARIANCE> 39
 1.452417e+01 4.385414e+01 2.421684e+01 3.150508e+01 3.431880e+01 3.434856e+01 3.617363e+01 3.725285e+01 2.965694e+01 3.369115e+01 3.621031e+01 2.661972e+01 5.192899e-02 2.158433e+00 5.857348e+00 3.520238e+00 2.736685e+00 3.215700e+00 3.922422e+00 3.657192e+00 5.160861e+00 5.356904e+00 5.055859e+00 3.765257e+00 3.082072e+00 7.523445e-03 3.985798e-01 5.712157e-01 5.012836e-01 4.683479e-01 5.962930e-01 6.132935e-01 6.619952e-01 1.057272e+00 8.377922e-01 8.671448e-01 7.769060e-01 5.564539e-01 1.106077e-03
<GCONST> 1.087482e+02
<MIXTURE> 2 4.423104e-01
<MEAN> 39
 4.262512e+00 -3.765010e+00 -5.408901e-02 2.435123e+00 5.003944e+00 4.393236e+00 4.831365e+00 4.753103e+00 2.334142e+00 3.455607e+00 4.233027e+00 3.776384e+00 7.505307e-01 8.453239e-01 -3.924246e+00 -2.369651e+00 8.817151e-01 6.586496e-01 -7.804517e-01 -2.293462e-01 -1.134869e+00 -2.292742e+00 1.582123e-01 -1.006630e-01 9.367874e-01 1.999808e-01 -7.520026e-01 -3.219712e-01 -2.092153e-02 1.819537e-01 -1.210338e-01 -5.296615e-01 -5.939475e-01 -6.683462e-01 -4.736096e-01 -3.476630e-01 -4.731435e-01 -3.694304e-01 -3.045298e-02
<VARIANCE> 39
 1.396788e+01 4.083575e+01 2.709384e+01 2.487491e+01 2.448234e+01 2.853769e+01 2.519873e+01 2.747308e+01 3.486032e+01 5.828778e+01 3.314364e+01 2.628149e+01 1.189073e-02 2.549478e+00 4.624749e+00 4.074833e+00 2.977162e+00 3.435440e+00 4.791928e+00 4.313049e+00 7.002152e+00 7.186909e+00 6.123206e+00 4.350526e+00 3.606713e+00 3.390362e-03 3.556094e-01 7.006478e-01 4.838619e-01 4.161227e-01 4.897600e-01 5.772895e-01 6.030859e-01 7.483261e-01 8.050756e-01 9.298518e-01 9.197316e-01 6.450410e-01 7.241683e-04
<GCONST> 1.065096e+02
<STATE> 3
<NUMMIXES> 2
<MIXTURE> 1 5.114430e-01
<MEAN> 39
 3.003924e+00 -1.003938e+01 -8.148694e+00 3.084791e+00 5.773062e+00 1.516686e-01 2.947413e+00 4.878600e+00 -7.632468e+00 -3.906604e+00 9.235510e-01 3.159025e+00 8.935336e-01 -6.292698e-01 -2.629527e+00 -1.958870e+00 1.445803e+00 1.194143e+00 -8.124596e-01 -4.308043e-01 -1.117995e+00 -3.209581e+00 1.824480e-01 6.061345e-01 2.135605e-01 8.382193e-02 -7.035498e-01 5.127105e-01 1.008902e+00 9.239943e-02 -2.675167e-01 -5.455184e-02 -2.787876e-01 -6.802670e-01 8.165868e-01 7.213928e-01 1.800306e-01 -3.546915e-01 -4.953970e-02
<VARIANCE> 39
 9.104565e+00 2.419472e+01 1.551461e+01 1.744145e+01 2.541897e+01 1.658667e+01 2.367357e+01 2.067222e+01 2.918485e+01 2.075792e+01 2.430268e+01 1.612630e+01 3.218357e-03 1.398100e+00 1.374336e+00 2.605055e+00 1.539763e+00 1.803286e+00 2.474731e+00 2.228247e+00 2.779999e+00 2.975039e+00 3.091471e+00 2.564512e+00 2.260664e+00 2.339603e-03 1.804914e-01 3.106453e-01 3.259167e-01 3.186192e-01 4.511577e-01 3.196580e-01 4.821882e-01 4.859017e-01 6.567954e-01 4.353425e-01 5.279512e-01 3.889220e-01 2.797999e-04
<GCONST> 8.527863e+01
<MIXTURE> 2 4.885569e-01
<MEAN> 39
 2.971521e+00 -1.241585e+01 -1.329281e+00 4.968429e+00 5.900449e+00 3.603855e+00 4.475744e+00 -1.373881e+00 6.254832e-01 9.371456e+00 4.331753e+00 5.322727e+00 8.928686e-01 -1.828531e+00 -4.041559e+00 -5.607454e-01 7.701044e-01 -6.194722e-01 -2.074791e+00 -2.126977e+00 -3.123476e+00 -1.075051e+00 -7.281724e-01 -2.117800e+00 -4.611556e-01 8.732616e-02 -7.658182e-01 9.934550e-01 6.921983e-01 -1.056577e-01 -3.816033e-01 -3.322387e-01 -4.058783e-01 3.085814e-01 1.660797e-01 -1.089141e+00 -6.470240e-01 -6.831622e-01 -5.444949e-02
<VARIANCE> 39
 1.286305e+01 3.317454e+01 2.090217e+01 2.716149e+01 1.879362e+01 3.323278e+01 2.321783e+01 3.272045e+01 5.340006e+01 3.140176e+01 2.485923e+01 2.573474e+01 3.520900e-03 2.059101e+00 2.113697e+00 2.351328e+00 2.178670e+00 2.319180e+00 3.288965e+00 2.838135e+00 3.981339e+00 4.579376e+00 3.197421e+00 4.898837e+00 6.635272e+00 2.899303e-03 2.683028e-01 5.523713e-01 4.039857e-01 4.373148e-01 3.585926e-01 6.814215e-01 5.717817e-01 7.683168e-01 1.050442e+00 6.288161e-01 5.463622e-01 5.171720e-01 2.979519e-04
<GCONST> 9.759319e+01
<STATE> 4
<NUMMIXES> 2
<MIXTURE> 1 4.823190e-01
<MEAN> 39
 -4.152600e-01 -1.333412e+01 -7.266263e+00 6.031209e+00 7.015052e+00 -6.440191e-01 1.098085e+00 -1.938708e-01 -9.904494e+00 -8.134879e-02 3.755584e+00 2.162601e+00 9.512947e-01 -1.100842e+00 -8.827456e-01 5.258512e-01 1.109081e+00 3.205862e-01 -7.085260e-01 -7.705066e-01 -1.818270e+00 -8.130638e-02 1.392743e+00 4.106454e-01 -7.012711e-01 1.547657e-02 1.227851e-01 6.425090e-01 5.931509e-01 -2.342119e-01 -3.455126e-01 1.801057e-02 5.390732e-02 2.048279e-01 9.815695e-01 -6.267652e-03 -2.978377e-01 -1.650869e-01 -2.130542e-02
<VARIANCE> 39
 7.649052e+00 2.387275e+01 1.499591e+01 1.983958e+01 1.882910e+01 1.994328e+01 2.177623e+01 1.692619e+01 2.331376e+01 2.063286e+01 1.973748e+01 1.842443e+01 1.691307e-03 3.630266e-01 3.996962e-01 6.921872e-01 7.078878e-01 1.015472e+00 1.031459e+00 1.243253e+00 1.261073e+00 1.455208e+00 1.253787e+00 1.630444e+00 1.392341e+00 1.608808e-04 1.015316e-01 1.220601e-01 1.944603e-01 1.573823e-01 1.480773e-01 2.439614e-01 2.459438e-01 2.908607e-01 3.025784e-01 3.445163e-01 2.526154e-01 2.572242e-01 1.679391e-04
<GCONST> 6.312428e+01
<MIXTURE> 2 5.176801e-01
<MEAN> 39
 -2.935456e+00 -1.531487e+01 7.618872e-01 5.978792e+00 3.877763e+00 -9.168748e-01 -1.048018e+00 -5.280032e+00 4.833052e-01 4.277986e+00 -2.024544e+00 2.072693e+00 9.396492e-01 -2.091834e+00 -9.817940e-01 1.024633e+00 3.779709e-01 -1.253599e+00 -1.880919e+00 -1.788877e+00 -1.045863e+00 -3.795611e-01 -2.317382e+00 -2.047908e+00 -1.053319e+00 1.789132e-02 3.466615e-01 1.159845e+00 4.093414e-01 -1.464919e-01 -1.231247e-01 3.606265e-01 5.260767e-01 9.053280e-01 2.025347e-01 -1.121431e-01 5.274333e-01 -1.933717e-03 -2.715654e-02
<VARIANCE> 39
 1.201516e+01 2.943007e+01 2.480521e+01 2.516240e+01 1.770407e+01 3.447682e+01 2.199174e+01 2.841018e+01 4.603444e+01 2.829164e+01 2.857170e+01 4.299778e+01 2.416423e-03 6.136487e-01 9.532980e-01 1.353863e+00 1.559916e+00 1.779635e+00 1.614240e+00 2.211132e+00 2.654619e+00 2.533702e+00 1.969235e+00 2.677663e+00 3.039600e+00 2.345016e-04 2.038177e-01 2.006084e-01 2.577322e-01 3.051548e-01 2.935680e-01 4.741058e-01 3.711504e-01 4.584004e-01 5.867994e-01 4.119312e-01 4.766326e-01 6.350722e-01 2.591270e-04
<GCONST> 8.311978e+01
<STATE> 5
<NUMMIXES> 2
<MIXTURE> 1 4.046082e-01
<MEAN> 39
 -5.394071e+00 -1.587500e+01 1.143862e+00 4.705060e+00 -9.403468e-01 -5.596626e+00 -3.567384e+00 -6.487765e+00 -2.211791e+00 -7.572821e-01 -3.901289e+00 3.573913e-01 9.492410e-01 -3.044324e-01 2.478222e-01 8.337324e-01 2.905661e-01 -7.358509e-01 -2.887625e-01 1.453508e-01 3.219696e-01 -2.246007e-01 -6.500056e-01 -9.420052e-03 -1.888745e-01 1.254865e-04 4.934763e-01 3.973823e-01 7.069108e-02 1.859541e-01 4.653424e-01 6.656869e-01 6.189294e-01 4.880052e-01 3.255841e-01 5.695374e-01 5.320694e-01 2.813246e-01 -3.648090e-03
<VARIANCE> 39
 1.279366e+01 3.220554e+01 3.448241e+01 2.376079e+01 2.361568e+01 2.810484e+01 2.306996e+01 2.963546e+01 3.812501e+01 2.837563e+01 3.647090e+01 5.015842e+01 2.251873e-03 2.906223e-01 4.347631e-01 8.073683e-01 8.456835e-01 1.122966e+00 1.207470e+00 1.374224e+00 1.627142e+00 1.360832e+00 1.266867e+00 1.151049e+00 1.044615e+00 4.841987e-05 5.780905e-02 6.427672e-02 1.255223e-01 1.609818e-01 2.003262e-01 1.666593e-01 2.048666e-01 2.194558e-01 2.138537e-01 1.836997e-01 2.916640e-01 3.209608e-01 1.685946e-05
<GCONST> 6.269193e+01
<MIXTURE> 2 5.953908e-01
<MEAN> 39
 -2.963826e+00 -1.396309e+01 -8.590386e-01 7.392412e+00 4.489855e+00 -1.745622e+00 -3.763196e-01 -2.571707e+00 -3.581239e+00 2.084491e+00 2.888515e-01 9.666382e-01 9.509763e-01 -5.544965e-01 -2.696145e-01 4.984941e-01 1.577090e-01 -7.877350e-01 -9.017209e-01 -5.493709e-01 -5.043808e-01 -3.120899e-04 -3.559930e-01 -4.131163e-01 -6.059798e-01 1.363192e-03 2.848323e-01 1.620668e-01 -1.673999e-01 -2.277488e-01 -7.134409e-02 1.424656e-01 1.738743e-01 2.200297e-01 7.821463e-03 -6.037043e-02 8.468821e-02 1.538783e-01 -4.268852e-03
<VARIANCE> 39
 1.113829e+01 3.026176e+01 4.945905e+01 2.126422e+01 2.303423e+01 2.464596e+01 2.066576e+01 2.445047e+01 4.640780e+01 2.355004e+01 3.055578e+01 3.003926e+01 2.147705e-03 2.155079e-01 3.127747e-01 6.867892e-01 8.864551e-01 1.174306e+00 1.015308e+00 9.589119e-01 1.003379e+00 1.447842e+00 1.738491e+00 1.142616e+00 8.615322e-01 6.513739e-05 5.262614e-02 8.492194e-02 1.170000e-01 1.338761e-01 1.357306e-01 1.580317e-01 1.870097e-01 2.731467e-01 2.244866e-01 2.881517e-01 2.471931e-01 1.806330e-01 1.727979e-05
<GCONST> 5.971359e+01
<STATE> 6
<NUMMIXES> 2
<MIXTURE> 1 3.915630e-01
<MEAN> 39
 -3.009624e+00 -1.399903e+01 -7.244027e-01 6.726108e+00 3.197351e+00 -3.592225e+00 -1.049447e+00 -3.547254e+00 -4.448391e+00 1.625009e+00 -5.262080e-01 -4.526535e-02 9.522628e-01 6.357150e-02 2.002292e-01 5.201930e-01 4.233203e-01 -8.105875e-02 4.042900e-02 2.773438e-01 2.515583e-01 3.858563e-01 5.827362e-03 6.079283e-02 4.180104e-02 -1.891223e-03 1.271546e-01 7.455163e-02 -1.042308e-01 -7.837759e-02 6.541493e-02 1.626324e-01 9.659335e-02 7.596207e-02 8.708606e-04 3.722161e-03 5.723231e-02 1.012688e-01 -1.261111e-03
<VARIANCE> 39
 1.247232e+01 3.459973e+01 3.783844e+01 2.152356e+01 2.886476e+01 2.314138e+01 2.226475e+01 2.501470e+01 3.396516e+01 2.651725e+01 3.034352e+01 3.024539e+01 2.056009e-03 1.692972e-01 2.740822e-01 3.581544e-01 5.103371e-01 6.225687e-01 8.181784e-01 7.147838e-01 8.298421e-01 8.087908e-01 7.744866e-01 7.764096e-01 6.661684e-01 3.754082e-05 2.498043e-02 3.645227e-02 6.867578e-02 7.121982e-02 1.076541e-01 1.006125e-01 1.073904e-01 1.160940e-01 1.286485e-01 1.513815e-01 1.040381e-01 9.790400e-02 4.310090e-06
<GCONST> 4.531627e+01
<MIXTURE> 2 6.084334e-01
<MEAN> 39
 -1.633694e+00 -1.234629e+01 -4.051180e+00 7.854196e+00 6.124587e+00 -3.369630e+00 4.837869e-01 -1.696442e+00 -5.838670e+00 1.061461e+00 2.098605e+00 5.870662e-01 9.433807e-01 6.262282e-02 6.241148e-02 1.714049e-01 9.615175e-02 -1.339257e-01 -1.900844e-02 -2.304835e-02 -6.003784e-02 1.052261e-01 1.788472e-02 -1.298873e-01 -1.687472e-02 -3.150579e-03 4.611254e-02 2.457031e-02 -2.301259e-02 -7.356833e-02 -2.756455e-02 8.700004e-02 7.711293e-03 1.269540e-02 -6.367554e-02 -2.024197e-02 -1.006266e-02 2.113836e-02 -7.201660e-04
<VARIANCE> 39
 8.689244e+00 3.174444e+01 1.737681e+01 2.249858e+01 1.860904e+01 1.698971e+01 1.873567e+01 1.437998e+01 1.908794e+01 1.878777e+01 1.482192e+01 1.037307e+01 2.194418e-03 7.327195e-02 6.261367e-02 1.114884e-01 1.463068e-01 1.533593e-01 2.247676e-01 2.175482e-01 2.279941e-01 2.803577e-01 2.629519e-01 2.117564e-01 1.764598e-01 3.754082e-05 1.015041e-02 1.015064e-02 1.874219e-02 2.533820e-02 2.418653e-02 3.207438e-02 3.554070e-02 4.167217e-02 4.357736e-02 4.675074e-02 4.054909e-02 2.988833e-02 3.730628e-06
<GCONST> 1.153751e+01
<STATE> 7
<NUMMIXES> 2
<MIXTURE> 1 6.805100e-01
<MEAN> 39
 -2.834348e+00 -1.286763e+01 1.823794e+00 7.527152e+00 1.157527e+00 -2.176501e+00 -3.935004e-01 -3.394406e+00 -2.805150e+00 2.359711e-01 -5.741641e-01 2.878025e-01 9.187369e-01 2.285645e-01 3.315753e-01 2.896025e-01 1.098397e-01 -5.114879e-02 4.088841e-01 2.167180e-01 1.142551e-01 1.132708e-01 4.217277e-02 9.807674e-02 4.501637e-02 -4.691627e-03 1.126910e-02 7.530537e-03 -7.219996e-02 -1.228997e-01 1.596584e-02 2.907588e-02 -5.509257e-02 -1.042767e-01 -4.004676e-02 -1.045008e-02 -5.872173e-02 -6.549560e-03 -6.265810e-04
<VARIANCE> 39
 1.670621e+01 2.793036e+01 3.604581e+01 2.341941e+01 2.895593e+01 2.379235e+01 2.127867e+01 2.841802e+01 3.268502e+01 2.414184e+01 2.649783e+01 2.460238e+01 3.700705e-03 1.461350e-01 1.903247e-01 3.508336e-01 4.381582e-01 5.424446e-01 4.917746e-01 5.458550e-01 6.393003e-01 5.837234e-01 5.736129e-01 4.751967e-01 4.958990e-01 3.840926e-05 2.380677e-02 4.145781e-02 6.561415e-02 8.933741e-02 1.021895e-01 1.113079e-01 1.151067e-01 1.169895e-01 1.136154e-01 1.000615e-01 8.845180e-02 9.433600e-02 3.730628e-06
<GCONST> 4.191050e+01
<MIXTURE> 2 3.194897e-01
<MEAN> 39
 -4.075793e+00 -1.231879e+01 5.418464e+00 7.666107e+00 4.889221e-01 -1.544858e+00 1.315577e+00 -1.799941e+00 3.308022e-01 3.161599e-01 -1.540019e+00 7.850157e-01 9.387376e-01 -2.181926e-01 -2.508222e-01 -3.731879e-01 -5.279939e-01 -7.268720e-01 -5.352594e-01 -6.205800e-01 -6.128977e-01 -5.331186e-01 -6.621371e-01 -2.994322e-01 -3.804095e-01 -3.305988e-03 -1.066074e-01 -1.994765e-01 -3.349080e-01 -3.500880e-01 -2.008879e-01 -2.810600e-01 -4.100056e-01 -3.580940e-01 -2.777742e-01 -1.742759e-01 -1.986371e-01 -1.529920e-01 -5.756533e-04
<VARIANCE> 39
 9.873552e+00 3.371124e+01 3.582920e+01 1.920728e+01 1.923647e+01 2.484158e+01 1.980284e+01 2.658242e+01 1.928604e+01 2.410757e+01 2.399193e+01 2.665147e+01 2.567315e-03 1.214427e-01 2.209840e-01 3.549758e-01 4.407921e-01 6.379527e-01 5.676197e-01 6.351666e-01 6.865095e-01 5.987333e-01 5.494102e-01 4.632159e-01 6.035029e-01 3.754082e-05 2.105551e-02 3.834183e-02 6.014206e-02 7.233481e-02 9.073050e-02 9.889642e-02 1.027596e-01 1.245265e-01 1.066599e-01 9.830345e-02 8.930457e-02 1.170120e-01 3.730628e-06
<GCONST> 3.994740e+01
<STATE> 8
<NUMMIXES> 2
<MIXTURE> 1 4.187496e-01
<MEAN> 39
 -3.651832e+00 -1.150955e+01 2.758370e+00 3.512036e+00 -4.034073e+00 -4.664377e+00 -3.303699e+00 -5.793774e+00 -2.705405e+00 -3.253321e+00 -4.504711e+00 -2.105433e+00 8.831456e-01 4.110449e-01 5.628862e-01 3.557690e-01 2.427940e-01 4.559924e-01 5.930052e-01 1.654662e-01 3.275716e-01 3.798721e-01 2.849928e-01 3.936447e-01 2.525776e-01 -6.786673e-03 1.429503e-01 1.966878e-01 1.235772e-01 1.409654e-01 3.083939e-01 2.983469e-01 1.913191e-01 1.923672e-01 2.041515e-01 2.170054e-01 1.985055e-01 1.549459e-01 -4.871096e-04
<VARIANCE> 39
 1.394219e+01 4.115630e+01 2.579688e+01 2.294202e+01 1.878423e+01 2.642505e+01 2.129364e+01 2.644181e+01 1.803085e+01 1.729975e+01 3.200521e+01 3.330236e+01 5.347793e-03 1.784749e-01 2.643756e-01 4.220144e-01 5.271252e-01 7.785115e-01 7.481027e-01 7.733682e-01 6.624997e-01 6.890246e-01 6.661079e-01 5.594082e-01 5.679930e-01 4.529937e-05 3.342284e-02 5.904819e-02 9.992584e-02 1.222357e-01 1.541207e-01 1.765659e-01 1.591836e-01 1.557836e-01 1.549718e-01 1.353235e-01 1.338837e-01 1.191055e-01 3.730628e-06
<GCONST> 4.830691e+01
<MIXTURE> 2 5.812482e-01
<MEAN> 39
 -2.370091e+00 -1.131677e+01 9.020138e-01 6.089132e+00 6.380485e-02 -3.025579e+00 -9.424276e-01 -3.940645e+00 -3.505288e+00 -8.938569e-01 -1.747661e+00 -6.921600e-01 8.995827e-01 -2.366038e-02 -8.895161e-03 -2.443713e-01 -6.236140e-01 -5.336689e-01 -2.019576e-01 -5.285063e-01 -6.855975e-01 -4.580540e-01 -3.213671e-01 -3.637189e-01 -2.279624e-01 -6.487207e-03 4.613560e-02 6.294715e-02 -9.028608e-03 -1.212758e-01 2.689264e-02 8.150333e-02 -2.791180e-03 -3.231952e-02 3.173599e-02 -1.725621e-02 -2.652667e-02 4.111522e-02 -9.420448e-04
<VARIANCE> 39
 1.468022e+01 4.302266e+01 4.090197e+01 2.730334e+01 3.164099e+01 2.852162e+01 2.244486e+01 2.652571e+01 2.762014e+01 2.400603e+01 3.259593e+01 2.883565e+01 5.397050e-03 2.477686e-01 4.188679e-01 6.564782e-01 6.509355e-01 7.427787e-01 1.125012e+00 1.065605e+00 9.149858e-01 7.405831e-01 8.582283e-01 7.364496e-01 7.586730e-01 5.233918e-05 3.772361e-02 6.659234e-02 9.795321e-02 1.418444e-01 1.518042e-01 1.896134e-01 1.616592e-01 1.728301e-01 1.462613e-01 1.599008e-01 1.369450e-01 1.193350e-01 5.040888e-06
<GCONST> 5.478899e+01
<STATE> 9
<NUMMIXES> 2
<MIXTURE> 1 5.573301e-01
<MEAN> 39
 -1.979837e+00 -1.365774e+01 -1.271483e+00 7.526057e+00 1.919373e+00 -2.817331e+00 -9.302086e-01 -4.873333e+00 -5.466312e+00 1.019211e+00 4.492756e-01 1.207768e+00 9.031903e-01 4.005784e-01 4.909363e-01 1.500647e-01 -6.502001e-01 -6.947853e-02 7.695906e-01 1.780683e-01 -3.734519e-01 -2.452616e-03 1.818394e-02 -2.649104e-01 9.517337e-02 -1.024120e-02 1.987320e-01 3.132907e-01 9.319495e-02 -1.786366e-01 6.460696e-02 2.168838e-01 1.791540e-01 1.021544e-01 2.344130e-01 -1.309240e-01 -1.066029e-01 4.642363e-02 -3.101009e-03
<VARIANCE> 39
 1.978692e+01 3.278717e+01 4.004843e+01 2.766839e+01 4.140584e+01 2.564529e+01 2.757511e+01 2.803048e+01 3.903036e+01 2.839839e+01 3.343685e+01 4.671767e+01 5.742341e-03 4.871368e-01 5.213277e-01 1.229494e+00 1.361669e+00 1.398474e+00 1.467070e+00 1.610561e+00 1.715839e+00 1.290749e+00 1.724548e+00 1.383252e+00 1.412050e+00 1.222455e-04 6.948669e-02 6.557095e-02 1.049575e-01 2.024230e-01 2.071593e-01 1.879761e-01 2.077554e-01 2.070414e-01 1.991445e-01 2.507357e-01 2.433321e-01 2.327781e-01 1.207067e-05
<GCONST> 6.849767e+01
<MIXTURE> 2 4.426708e-01
<MEAN> 39
 -3.617491e+00 -1.140034e+01 6.854863e+00 7.085094e+00 -9.110335e-01 -7.817377e-01 -2.113799e+00 -3.099212e+00 2.356954e+00 -2.223925e-01 3.190697e-01 3.531746e+00 8.822550e-01 2.029245e-01 4.419495e-01 -5.834344e-01 -6.236280e-01 5.724896e-01 2.255714e-01 -9.381765e-01 -1.829192e-01 1.189905e-01 -1.417249e-01 4.307405e-01 4.126352e-02 -7.718154e-03 -1.824122e-02 -4.269885e-02 -4.359662e-01 -4.612414e-01 -1.770235e-01 -1.913503e-01 -2.783774e-01 -2.835328e-01 -3.847443e-01 -1.533769e-01 -7.294656e-03 -2.034951e-01 -1.344208e-03
<VARIANCE> 39
 1.878203e+01 4.067320e+01 2.147599e+01 2.991949e+01 2.548032e+01 2.454399e+01 3.271482e+01 2.415613e+01 2.984530e+01 2.708614e+01 4.730415e+01 5.594746e+01 7.012158e-03 4.150493e-01 7.056676e-01 1.358971e+00 1.545628e+00 1.596867e+00 1.429290e+00 2.135012e+00 1.584449e+00 1.880208e+00 1.619118e+00 1.701365e+00 1.595388e+00 7.778942e-05 6.811756e-02 1.051698e-01 1.572234e-01 1.464890e-01 1.953791e-01 2.225287e-01 2.939969e-01 2.181914e-01 2.335980e-01 2.712421e-01 2.877292e-01 2.652088e-01 6.766703e-06
<GCONST> 6.988918e+01
<STATE> 10
<MEAN> 39
 -1.883178e+00 -1.180165e+01 1.855088e-01 4.076560e+00 1.421733e+00 -1.358883e+00 -3.515620e+00 -6.146334e+00 -3.915721e+00 -6.667698e-01 -9.734386e-01 1.657848e-01 8.798130e-01 6.639554e-01 9.606010e-01 -4.046388e-01 -1.364760e+00 8.675320e-02 8.582529e-01 -2.865768e-02 -4.037883e-01 -6.222460e-02 -4.481316e-01 5.089705e-02 4.965166e-02 -1.301067e-02 2.632779e-01 4.492979e-01 1.771927e-01 -7.381425e-02 -1.117657e-01 8.363105e-02 2.939900e-01 2.928500e-01 1.608031e-01 -5.657856e-02 2.755557e-02 5.301005e-03 -4.326982e-03
<VARIANCE> 39
 2.013744e+01 4.107608e+01 3.212515e+01 3.066927e+01 2.997824e+01 2.980803e+01 4.405666e+01 3.678518e+01 4.398816e+01 3.239431e+01 3.635920e+01 3.205966e+01 7.688453e-03 5.761368e-01 7.481042e-01 2.291939e+00 2.301193e+00 1.987153e+00 2.159917e+00 2.603858e+00 2.497367e+00 2.130365e+00 2.256308e+00 3.132900e+00 2.078634e+00 1.407559e-04 1.111406e-01 1.177236e-01 1.468957e-01 2.418800e-01 3.188562e-01 3.324139e-01 4.129573e-01 3.246673e-01 4.542262e-01 4.140444e-01 3.752532e-01 3.163207e-01 2.398899e-05
<GCONST> 8.128678e+01
<STATE> 11
<MEAN> 39
 -9.575809e-01 -1.010011e+01 -9.780253e-01 8.038226e-01 2.552736e+00 1.796750e+00 -2.349587e+00 -6.076009e+00 -3.734651e+00 -1.118963e+00 -5.096228e-02 8.712431e-01 8.678429e-01 1.188081e+00 1.985518e+00 1.400734e-02 -1.717051e+00 -6.372961e-01 7.101401e-01 7.559227e-01 5.340446e-01 3.716612e-01 -6.674764e-01 -2.660059e-01 -7.216622e-02 -2.012470e-02 8.446750e-02 3.648136e-01 4.745329e-01 4.504775e-01 -2.778378e-01 -4.183716e-01 4.867241e-02 3.608390e-01 3.128429e-01 8.890244e-02 -8.621503e-02 -1.238331e-01 -6.793364e-03
<VARIANCE> 39
 1.910803e+01 3.706636e+01 3.304320e+01 5.411768e+01 3.128769e+01 4.261830e+01 5.531849e+01 4.687073e+01 4.098551e+01 3.614702e+01 4.317328e+01 3.422567e+01 7.365342e-03 9.506157e-01 1.315779e+00 2.414870e+00 3.367056e+00 3.028750e+00 2.657945e+00 2.660553e+00 3.166273e+00 3.813654e+00 3.492826e+00 3.966834e+00 2.626420e+00 2.216299e-04 1.357029e-01 1.689918e-01 3.336082e-01 5.584767e-01 5.746964e-01 6.866876e-01 6.562567e-01 6.294324e-01 5.401034e-01 5.794355e-01 6.794769e-01 5.367066e-01 6.588842e-05
<GCONST> 9.446024e+01
<STATE> 12
<MEAN> 39
 1.999448e+00 -5.836018e+00 -1.112047e-01 -1.341567e+00 -7.808488e-01 9.515927e-01 -2.406488e-01 -4.239271e+00 -2.475224e+00 -2.311077e+00 -1.625115e+00 1.162336e-01 8.288597e-01 1.080981e+00 2.236179e+00 1.288405e+00 1.257338e-01 -7.793855e-01 -4.268006e-01 6.089777e-02 6.366973e-01 9.988661e-01 -3.587214e-02 -1.934155e-01 -3.341620e-01 -3.241992e-02 -4.061567e-01 -1.577334e-01 2.860542e-01 8.689834e-01 3.789290e-01 -1.439038e-01 -2.455697e-01 5.667143e-02 1.351427e-02 3.519488e-01 2.451016e-01 -6.615595e-03 -1.053842e-02
<VARIANCE> 39
 1.503928e+01 4.120246e+01 3.827152e+01 7.415128e+01 3.756117e+01 3.836517e+01 5.658365e+01 4.558786e+01 4.131705e+01 3.857915e+01 4.733258e+01 2.853372e+01 9.193086e-03 1.087246e+00 1.487128e+00 1.854128e+00 2.634629e+00 3.022966e+00 3.931028e+00 3.143936e+00 3.096523e+00 3.486153e+00 2.574466e+00 3.610068e+00 3.067249e+00 4.969387e-04 1.963628e-01 2.180695e-01 3.823569e-01 7.777359e-01 5.124504e-01 5.512001e-01 6.825917e-01 7.366263e-01 6.714899e-01 6.664737e-01 8.225544e-01 4.440483e-01 1.894560e-04
<GCONST> 9.819034e+01
<STATE> 13
<MEAN> 39
 3.468630e+00 -1.273662e+00 4.651535e+00 3.141204e+00 -9.000975e-01 -8.087040e-01 -2.642191e+00 -4.484600e+00 -2.038601e+00 -1.331448e+00 -1.101476e+00 -1.916426e-01 7.299930e-01 -2.991167e-01 1.088959e+00 1.298057e+00 1.505556e+00 6.507428e-01 1.936785e-01 -4.279400e-02 4.229074e-01 5.192347e-01 4.893221e-01 3.054608e-01 -4.565594e-02 -5.731270e-02 -6.506104e-01 -5.978538e-01 -4.008841e-01 1.347933e-01 3.738248e-01 3.251561e-01 2.088598e-01 2.542252e-01 5.288002e-02 2.435423e-01 2.760332e-01 9.140895e-02 -1.275778e-02
<VARIANCE> 39
 1.383510e+01 4.387643e+01 4.520620e+01 5.960156e+01 3.651270e+01 3.192599e+01 5.377345e+01 4.689144e+01 4.202595e+01 3.877420e+01 3.831753e+01 3.285955e+01 1.506617e-02 1.242694e+00 1.794752e+00 1.836887e+00 4.159163e+00 2.732759e+00 2.986613e+00 3.827640e+00 3.868680e+00 3.253460e+00 3.122379e+00 3.529063e+00 2.583647e+00 1.634965e-03 3.354031e-01 2.870615e-01 4.383098e-01 4.803175e-01 5.025346e-01 5.390354e-01 6.225884e-01 7.186359e-01 6.341065e-01 6.070922e-01 5.921269e-01 5.137137e-01 2.359332e-04
<GCONST> 1.004542e+02
<STATE> 14
<MEAN> 39
 9.525989e-01 -2.977074e+00 5.001228e+00 6.818633e+00 2.720714e+00 1.124053e+00 -1.217894e+00 -3.208638e+00 -1.455749e+00 -1.341162e-01 1.631949e-01 3.618769e-01 6.128222e-01 -1.502775e+00 -2.012143e-01 -4.538062e-01 5.263945e-01 7.411862e-01 9.676405e-01 6.895971e-01 1.411677e+00 9.122307e-01 8.403182e-01 9.273371e-01 1.421327e-01 -8.120614e-02 -3.252517e-01 -3.447772e-01 -7.094764e-01 -5.860986e-01 -1.570098e-01 1.434966e-01 2.089124e-01 2.212396e-01 6.420306e-02 6.957608e-02 3.371545e-02 -6.486703e-03 1.697666e-03
<VARIANCE> 39
 1.498975e+01 4.865262e+01 5.396012e+01 6.223440e+01 3.944008e+01 3.563967e+01 4.614161e+01 4.460045e+01 4.950061e+01 3.746779e+01 3.699396e+01 3.007403e+01 2.921160e-02 2.363769e+00 2.577075e+00 2.154486e+00 3.395907e+00 2.945294e+00 3.323194e+00 4.093043e+00 4.090868e+00 3.728711e+00 4.181799e+00 3.727526e+00 3.016958e+00 3.668921e-03 2.140285e-01 4.125693e-01 4.519960e-01 5.609169e-01 5.519213e-01 5.927923e-01 6.480459e-01 7.315212e-01 7.799804e-01 5.631950e-01 5.725793e-01 5.052904e-01 3.463333e-04
<GCONST> 1.050341e+02
<TRANSP> 15
 0.000000e+00 1.000000e+00 0.000000e+00 0.000000e+00 0.000000e+00 0.000000e+00 0.000000e+00 0.000000e+00 0.000000e+00 0.000000e+00 0.000000e+00 0.000000e+00 0.000000e+00 0.000000e+00 0.000000e+00
 0.000000e+00 6.236311e-01 3.763689e-01 0.000000e+00 0.000000e+00 0.000000e+00 0.000000e+00 0.000000e+00 0.000000e+00 0.000000e+00 0.000000e+00 0.000000e+00 0.000000e+00 0.000000e+00 0.000000e+00
 0.000000e+00 0.000000e+00 4.267108e-01 5.732892e-01 0.000000e+00 0.000000e+00 0.000000e+00 0.000000e+00 0.000000e+00 0.000000e+00 0.000000e+00 0.000000e+00 0.000000e+00 0.000000e+00 0.000000e+00
 0.000000e+00 0.000000e+00 0.000000e+00 4.644850e-01 5.355150e-01 0.000000e+00 0.000000e+00 0.000000e+00 0.000000e+00 0.000000e+00 0.000000e+00 0.000000e+00 0.000000e+00 0.000000e+00 0.000000e+00
 0.000000e+00 0.000000e+00 0.000000e+00 0.000000e+00 5.321681e-01 4.678318e-01 0.000000e+00 0.000000e+00 0.000000e+00 0.000000e+00 0.000000e+00 0.000000e+00 0.000000e+00 0.000000e+00 0.000000e+00
 0.000000e+00 0.000000e+00 0.000000e+00 0.000000e+00 0.000000e+00 7.609459e-01 2.390541e-01 0.000000e+00 0.000000e+00 0.000000e+00 0.000000e+00 0.000000e+00 0.000000e+00 0.000000e+00 0.000000e+00
 0.000000e+00 0.000000e+00 0.000000e+00 0.000000e+00 0.000000e+00 0.000000e+00 6.647648e-01 3.352352e-01 0.000000e+00 0.000000e+00 0.000000e+00 0.000000e+00 0.000000e+00 0.000000e+00 0.000000e+00
 0.000000e+00 0.000000e+00 0.000000e+00 0.000000e+00 0.000000e+00 0.000000e+00 0.000000e+00 6.884075e-01 3.115925e-01 0.000000e+00 0.000000e+00 0.000000e+00 0.000000e+00 0.000000e+00 0.000000e+00
 0.000000e+00 0.000000e+00 0.000000e+00 0.000000e+00 0.000000e+00 0.000000e+00 0.000000e+00 0.000000e+00 4.919824e-01 5.080175e-01 0.000000e+00 0.000000e+00 0.000000e+00 0.000000e+00 0.000000e+00
 0.000000e+00 0.000000e+00 0.000000e+00 0.000000e+00 0.000000e+00 0.000000e+00 0.000000e+00 0.000000e+00 0.000000e+00 2.395729e-01 7.604271e-01 0.000000e+00 0.000000e+00 0.000000e+00 0.000000e+00
 0.000000e+00 0.000000e+00 0.000000e+00 0.000000e+00 0.000000e+00 0.000000e+00 0.000000e+00 0.000000e+00 0.000000e+00 0.000000e+00 3.194887e-01 6.805113e-01 0.000000e+00 0.000000e+00 0.000000e+00
 0.000000e+00 0.000000e+00 0.000000e+00 0.000000e+00 0.000000e+00 0.000000e+00 0.000000e+00 0.000000e+00 0.000000e+00 0.000000e+00 0.000000e+00 2.314161e-01 7.685839e-01 0.000000e+00 0.000000e+00
 0.000000e+00 0.000000e+00 0.000000e+00 0.000000e+00 0.000000e+00 0.000000e+00 0.000000e+00 0.000000e+00 0.000000e+00 0.000000e+00 0.000000e+00 0.000000e+00 4.436655e-01 5.563346e-01 0.000000e+00
 0.000000e+00 0.000000e+00 0.000000e+00 0.000000e+00 0.000000e+00 0.000000e+00 0.000000e+00 0.000000e+00 0.000000e+00 0.000000e+00 0.000000e+00 0.000000e+00 0.000000e+00 2.918208e-01 7.081791e-01
 0.000000e+00 0.000000e+00 0.000000e+00 0.000000e+00 0.000000e+00 0.000000e+00 0.000000e+00 0.000000e+00 0.000000e+00 0.000000e+00 0.000000e+00 0.000000e+00 0.000000e+00 0.000000e+00 0.000000e+00
<ENDHMM>
~h "qi"
<BEGINHMM>
<NUMSTATES> 15
<STATE> 2
<NUMMIXES> 2
<MIXTURE> 1 4.688081e-01
<MEAN> 39
 -8.757677e+00 -1.287669e+00 1.117650e+00 9.723606e+00 5.117795e+00 1.045364e+01 7.642578e+00 8.522339e+00 5.901405e+00 6.525324e+00 4.865913e+00 2.348012e+00 2.938634e-01 -1.619545e+00 1.139690e+00 -8.513865e-01 8.279141e-01 6.083766e-01 3.346607e-01 7.071551e-01 3.545057e-01 6.479548e-02 8.924615e-02 1.119462e-01 1.793946e-02 4.088849e-02 3.584543e-01 1.039560e-01 1.864506e-01 -3.696128e-01 -7.956458e-02 -4.314464e-01 -3.771632e-01 -4.646192e-01 -3.426064e-01 -4.286628e-01 -2.219568e-01 -1.136655e-01 6.043675e-03
<VARIANCE> 39
 1.710537e+01 4.160968e+01 2.968080e+01 1.848247e+01 2.413935e+01 2.003884e+01 2.130971e+01 2.175245e+01 1.833207e+01 1.912267e+01 2.507624e+01 2.517200e+01 1.613254e-02 1.077717e+00 2.272231e+00 1.550340e+00 1.913730e+00 1.772370e+00 2.025618e+00 2.189361e+00 2.041836e+00 2.281895e+00 2.135488e+00 1.981735e+00 1.853452e+00 9.811417e-04 2.422143e-01 4.878293e-01 3.532393e-01 3.319923e-01 3.682892e-01 3.807796e-01 4.710830e-01 4.290603e-01 4.020140e-01 3.906299e-01 3.990027e-01 3.731981e-01 4.575796e-04
<GCONST> 8.648212e+01
<MIXTURE> 2 5.311902e-01
<MEAN> 39
 -1.275648e+01 6.117730e-01 -3.074700e+00 8.392384e+00 2.515973e+00 5.494424e+00 4.024401e+00 4.259682e+00 2.426705e+00 2.721988e+00 2.231421e+00 2.481323e+00 3.525800e-01 -1.352947e+00 4.377486e-01 -7.897228e-01 9.131675e-03 6.024687e-01 6.936275e-02 2.602454e-01 -4.582568e-02 3.864978e-02 -2.024062e-01 -3.523348e-02 -1.076268e-01 4.475810e-02 5.301082e-01 -1.835332e-01 2.465322e-01 -2.969055e-01 5.682486e-02 4.853752e-02 8.007338e-02 1.970030e-02 1.657190e-01 7.829644e-03 5.949498e-02 -6.091388e-02 1.417842e-03
<VARIANCE> 39
 1.606102e+01 3.132616e+01 2.543444e+01 2.119134e+01 1.869473e+01 2.057843e+01 2.497498e+01 2.760597e+01 2.689787e+01 2.487981e+01 2.747306e+01 2.641437e+01 1.444230e-02 1.013823e+00 1.825944e+00 1.493426e+00 1.663961e+00 1.690750e+00 1.805949e+00 2.097087e+00 2.199549e+00 2.264290e+00 2.443038e+00 1.938163e+00 2.155306e+00 7.246687e-04 1.800161e-01 3.498017e-01 3.370291e-01 2.910422e-01 3.129803e-01 3.631093e-01 4.374347e-01 4.365935e-01 4.555590e-01 4.496337e-01 4.179829e-01 3.990296e-01 2.721836e-04
<GCONST> 8.511047e+01
<STATE> 3
<NUMMIXES> 2
<MIXTURE> 1 5.571814e-01
<MEAN> 39
 -1.180157e+01 7.558210e-01 -1.269536e-01 9.212527e+00 7.281308e+00 1.012816e+01 7.977969e+00 7.965088e+00 4.619252e+00 4.579081e+00 3.799186e+00 1.374526e-01 4.334224e-01 -3.441967e-02 1.878428e-01 -2.352821e-01 -3.013493e-01 5.920888e-02 -5.216239e-02 7.162767e-02 1.026766e-01 4.079494e-02 -1.191828e-01 4.785802e-02 -1.813011e-01 1.389375e-02 2.041227e-01 3.843624e-02 3.274287e-02 -1.496640e-01 -2.552253e-01 -2.318099e-01 -2.119582e-01 -9.022616e-02 -3.059026e-02 2.196574e-02 4.836442e-02 1.089401e-01 -3.323298e-03
<VARIANCE> 39
 1.305698e+01 2.976036e+01 1.882643e+01 1.415616e+01 1.908646e+01 2.018721e+01 2.106668e+01 2.570210e+01 2.926225e+01 2.824650e+01 4.146995e+01 3.638478e+01 1.400820e-02 3.649174e-01 5.097285e-01 8.088271e-01 1.150864e+00 1.518047e+00 1.619856e+00 1.847594e+00 1.805002e+00 2.296341e+00 2.148896e+00 1.932351e+00 1.766637e+00 3.800799e-04 9.356750e-02 1.208672e-01 1.617521e-01 2.302264e-01 3.336585e-01 3.716105e-01 4.104929e-01 3.988702e-01 5.039117e-01 4.613709e-01 4.407752e-01 4.030320e-01 7.298236e-05
<GCONST> 7.615950e+01
<MIXTURE> 2 4.428152e-01
<MEAN> 39
 -1.500198e+01 6.031943e-01 -6.412636e+00 4.428993e+00 2.713584e+00 4.025447e+00 4.714969e+00 3.088406e+00 4.600807e+00 2.093662e+00 3.484616e+00 3.282156e+00 4.893639e-01 1.060281e-02 3.399468e-01 3.719716e-02 -4.059588e-01 1.673797e-01 -2.850838e-01 2.753090e-02 -2.240320e-01 1.550086e-01 -2.818039e-01 -1.694617e-02 -1.213273e-01 9.844086e-03 4.625553e-01 3.104942e-01 4.054136e-01 9.290076e-02 -6.575080e-02 -1.043636e-01 -2.368745e-01 -1.434715e-01 -1.519731e-01 -1.212983e-01 -1.473524e-01 -1.630710e-01 1.591313e-03
<VARIANCE> 39
 1.537016e+01 2.950496e+01 1.749575e+01 1.714112e+01 1.637948e+01 2.191729e+01 2.539139e+01 2.937356e+01 2.463168e+01 3.047973e+01 2.786541e+01 2.529244e+01 8.290028e-03 4.571674e-01 7.849346e-01 9.112468e-01 1.231631e+00 1.352269e+00 1.550246e+00 1.900766e+00 2.071171e+00 2.124870e+00 2.027632e+00 2.024361e+00 1.782880e+00 3.571091e-04 2.050453e-01 2.422554e-01 1.985305e-01 2.488628e-01 3.011859e-01 3.871072e-01 4.905114e-01 4.690036e-01 4.559976e-01 4.668795e-01 4.304374e-01 3.959188e-01 1.934452e-04
<GCONST> 7.889397e+01
<STATE> 4
<NUMMIXES> 2
<MIXTURE> 1 4.866151e-01
<MEAN> 39
 -1.114867e+01 2.652113e+00 -3.608854e-01 8.788759e+00 7.245311e+00 1.004548e+01 8.557334e+00 9.333509e+00 4.113193e+00 4.693610e+00 3.355132e+00 -1.088503e+00 4.233726e-01 1.215588e+00 1.074941e+00 -2.108283e-03 -1.151624e+00 -1.531479e+00 -1.887780e+00 -1.552594e+00 -6.980873e-01 -1.186245e-01 2.245805e-01 6.362892e-01 8.671992e-01 3.506482e-02 8.704579e-01 5.199857e-01 -8.771427e-02 -9.158401e-01 -1.174423e+00 -1.357949e+00 -1.058848e+00 -7.262637e-01 -2.535669e-01 -6.546195e-02 5.084415e-02 5.300997e-01 3.069879e-02
<VARIANCE> 39
 1.376939e+01 2.615991e+01 1.719680e+01 1.831171e+01 1.923011e+01 2.433480e+01 2.067357e+01 2.605986e+01 3.651669e+01 3.242010e+01 4.399966e+01 3.282533e+01 1.107945e-02 1.222127e+00 8.403772e-01 8.672654e-01 2.058212e+00 3.223391e+00 3.518111e+00 3.077182e+00 2.565760e+00 2.876732e+00 2.693439e+00 2.535239e+00 2.507492e+00 1.804007e-03 1.174781e-01 1.334463e-01 2.377567e-01 3.154421e-01 3.104629e-01 3.293007e-01 4.511982e-01 5.209318e-01 8.068239e-01 6.879602e-01 6.506448e-01 6.687719e-01 1.258850e-04
<GCONST> 8.740788e+01
<MIXTURE> 2 5.133835e-01
<MEAN> 39
 -1.369515e+01 2.375655e+00 -4.838460e+00 4.790144e+00 4.130361e+00 4.769215e+00 5.273926e+00 3.752992e+00 5.455771e+00 1.845146e+00 4.253675e+00 2.724736e+00 4.659409e-01 2.677887e+00 2.570712e+00 1.566399e+00 -1.032960e+00 -1.595907e+00 -2.444309e+00 -2.617416e+00 -1.968087e+00 -1.222853e+00 -1.273990e+00 -9.149923e-01 -9.412490e-01 6.865031e-02 9.689139e-01 6.365198e-01 3.874791e-01 -6.514901e-01 -8.121976e-01 -7.506157e-01 -8.952910e-01 -3.429011e-01 -3.008212e-01 -3.753994e-01 -2.501256e-01 -4.680238e-01 3.007183e-02
<VARIANCE> 39
 1.469794e+01 2.595238e+01 1.672105e+01 1.854790e+01 1.741295e+01 2.451753e+01 2.735374e+01 3.336747e+01 2.884841e+01 2.995913e+01 3.059101e+01 2.727550e+01 8.011053e-03 1.106990e+00 9.542924e-01 1.203396e+00 1.998281e+00 2.474790e+00 2.938679e+00 2.930627e+00 2.268944e+00 2.177239e+00 2.152448e+00 1.956660e+00 2.434996e+00 1.066582e-03 1.341963e-01 1.730045e-01 2.608202e-01 2.702386e-01 2.838859e-01 4.203459e-01 4.838080e-01 5.435086e-01 5.373927e-01 4.895695e-01 5.884004e-01 4.253987e-01 6.329898e-05
<GCONST> 8.370152e+01
<STATE> 5
<NUMMIXES> 2
<MIXTURE> 1 5.889993e-01
<MEAN> 39
 -8.353456e+00 7.861688e+00 -4.673640e-01 5.215633e+00 2.701464e+00 8.803167e-01 1.493521e+00 -5.279794e-01 1.042153e+00 -2.176527e+00 -7.742949e-01 -1.264817e+00 6.273429e-01 3.898822e+00 3.041425e+00 1.798562e+00 -2.645144e+00 -2.839944e+00 -3.092199e+00 -3.450938e+00 -1.554834e+00 -4.097752e-01 -1.152672e+00 -1.580980e-01 -1.228983e+00 1.094398e-01 5.998237e-02 -1.726091e-01 -2.065701e-01 -6.969059e-01 -4.162999e-01 -1.880173e-01 -3.576017e-01 2.343873e-01 2.573257e-01 7.438950e-02 4.702867e-01 1.850356e-01 1.068200e-02
<VARIANCE> 39
 1.603129e+01 2.974938e+01 1.600113e+01 1.619659e+01 1.631655e+01 2.928369e+01 3.046388e+01 4.659852e+01 2.564640e+01 3.151389e+01 2.565340e+01 2.169087e+01 1.648223e-02 7.842814e-01 1.128981e+00 2.588002e+00 2.017709e+00 1.817988e+00 2.603462e+00 2.909694e+00 2.944244e+00 4.079851e+00 5.068062e+00 4.548109e+00 5.358478e+00 5.072652e-04 1.921431e-01 1.958571e-01 2.023130e-01 2.451061e-01 2.916362e-01 4.201514e-01 4.707985e-01 5.801606e-01 4.294507e-01 4.914171e-01 4.451392e-01 4.776607e-01 1.439785e-04
<GCONST> 8.797900e+01
<MIXTURE> 2 4.109999e-01
<MEAN> 39
 -5.941326e+00 8.197365e+00 1.597233e+00 5.083733e+00 2.576333e-01 -1.415334e-01 -1.573595e+00 2.632848e+00 2.350260e+00 5.435765e+00 8.047888e+00 4.432795e+00 6.567271e-01 3.679821e+00 2.384878e+00 -4.995177e-01 -3.731071e+00 -4.504161e+00 -5.341876e+00 -3.928928e+00 -2.568146e+00 -1.546708e+00 -8.389282e-01 -6.809943e-01 1.033791e+00 1.253482e-01 -8.087006e-02 -1.663958e-01 -4.756170e-01 -3.725275e-01 3.844667e-02 9.889822e-02 4.704844e-01 1.447706e-01 -2.716895e-01 -4.525687e-01 -8.871318e-01 -4.036955e-01 5.468015e-03
<VARIANCE> 39
 1.270039e+01 2.576859e+01 1.570476e+01 1.767190e+01 2.920798e+01 3.049470e+01 2.322044e+01 2.814677e+01 2.566321e+01 3.751311e+01 2.994839e+01 2.155436e+01 9.939450e-03 7.649351e-01 7.986894e-01 1.683396e+00 1.518318e+00 1.463296e+00 1.746630e+00 2.025167e+00 2.347453e+00 3.301451e+00 3.516463e+00 4.365900e+00 6.231014e+00 7.458336e-04 1.457805e-01 1.443492e-01 2.032573e-01 3.022676e-01 4.053586e-01 4.325940e-01 4.144076e-01 6.449324e-01 5.060508e-01 5.663956e-01 5.568419e-01 6.379281e-01 1.041522e-04
<GCONST> 8.542854e+01
<STATE> 6
<NUMMIXES> 2
<MIXTURE> 1 3.167858e-01
<MEAN> 39
 9.188982e-01 1.047146e+01 -2.389092e+00 -3.638034e+00 -8.822286e+00 -6.795492e+00 -3.273051e+00 4.331083e+00 3.756427e+00 8.922600e+00 7.627614e+00 6.572263e+00 7.973825e-01 2.482699e+00 1.561027e+00 -1.539167e+00 -3.864247e+00 -3.380604e+00 -4.382628e+00 -2.325794e+00 -2.133346e+00 -7.175267e-01 -9.783089e-02 2.995216e-01 2.985451e+00 1.210993e-01 -9.921681e-01 -5.289676e-01 -8.062290e-02 7.896551e-01 1.272432e+00 1.147542e+00 8.747520e-01 6.633790e-02 -5.508589e-01 -7.846683e-01 -8.872821e-01 -4.472760e-01 -2.004603e-02
<VARIANCE> 39
 8.512459e+00 2.519179e+01 1.757559e+01 1.971531e+01 2.142761e+01 2.397277e+01 2.703073e+01 3.338414e+01 2.924993e+01 3.688743e+01 3.168566e+01 3.740601e+01 5.978627e-03 1.533744e+00 1.015436e+00 1.351045e+00 2.166747e+00 2.432051e+00 2.058631e+00 2.265277e+00 3.765836e+00 5.274035e+00 7.520946e+00 8.609003e+00 6.750043e+00 5.657228e-04 1.099212e-01 1.488887e-01 1.899140e-01 3.763345e-01 3.239764e-01 4.229528e-01 5.151731e-01 5.916759e-01 6.542299e-01 4.283235e-01 4.824754e-01 7.388225e-01 1.357477e-04
<GCONST> 8.928365e+01
<MIXTURE> 2 6.832139e-01
<MEAN> 39
 -1.168663e+00 1.243107e+01 1.087011e+00 -1.612836e+00 -4.793476e+00 -6.061448e+00 -6.352116e+00 -2.867428e+00 1.208885e+00 -3.301033e+00 7.852551e-01 -2.191992e+00 8.034114e-01 3.116679e+00 2.224317e+00 9.946241e-01 -3.084438e+00 -2.837169e+00 -2.926918e+00 -3.362422e+00 -9.921424e-01 -7.020320e-01 -1.484147e+00 -6.143169e-01 -1.541366e+00 1.043515e-01 -9.430290e-01 -7.785105e-01 -5.477275e-01 1.555753e-01 5.561829e-01 7.375226e-01 7.508934e-01 6.829601e-01 2.984518e-01 3.253198e-01 3.004901e-01 2.223754e-01 -1.772597e-02
<VARIANCE> 39
 1.035067e+01 2.424334e+01 1.161627e+01 1.565026e+01 1.510051e+01 1.732553e+01 1.965558e+01 2.013754e+01 2.159665e+01 1.938131e+01 2.473479e+01 2.202044e+01 4.669418e-03 9.955673e-01 1.114908e+00 2.330951e+00 1.409463e+00 1.985443e+00 3.104935e+00 2.667227e+00 3.381952e+00 3.404717e+00 3.188937e+00 5.280358e+00 2.158871e+00 4.216218e-04 1.100339e-01 1.223082e-01 1.649676e-01 2.746949e-01 3.087973e-01 3.625354e-01 5.010468e-01 3.688211e-01 3.336093e-01 3.005746e-01 5.420110e-01 4.979177e-01 8.031979e-05
<GCONST> 7.896303e+01
<STATE> 7
<NUMMIXES> 2
<MIXTURE> 1 3.794059e-01
<MEAN> 39
 -6.505773e-01 1.205968e+01 -7.379070e-02 -5.015396e+00 -6.477301e+00 -6.214179e+00 -6.594224e+00 -6.106315e-01 4.829050e+00 -1.579275e-01 5.851905e+00 2.453449e+00 8.643675e-01 6.228617e-01 4.928676e-01 -2.295104e-01 -1.871522e+00 -1.157683e+00 -9.226602e-01 -1.621920e+00 -5.094715e-01 -2.545936e-01 -9.356676e-01 1.078897e+00 9.928947e-01 5.300524e-02 -1.080214e+00 -7.062340e-01 -3.577631e-01 8.927790e-01 1.046722e+00 9.568899e-01 9.539109e-01 3.350071e-01 -3.144400e-01 -2.874670e-03 -3.535746e-01 -1.378107e-01 -3.059592e-02
<VARIANCE> 39
 8.606503e+00 2.765297e+01 2.382401e+01 1.520923e+01 1.534400e+01 2.117285e+01 3.440667e+01 3.420414e+01 2.388870e+01 9.459044e+01 2.327617e+01 8.350333e+01 3.820717e-03 1.295921e+00 9.768913e-01 2.144385e+00 1.388178e+00 2.309045e+00 2.186521e+00 2.377988e+00 3.985851e+00 3.421670e+00 3.258202e+00 3.881694e+00 6.178272e+00 2.940001e-04 9.645098e-02 1.609923e-01 3.757641e-01 3.441100e-01 2.844177e-01 4.799587e-01 3.562841e-01 4.273278e-01 4.183434e-01 8.401479e-01 5.381997e-01 9.395455e-01 5.035572e-05
<GCONST> 8.656738e+01
<MIXTURE> 2 6.205938e-01
<MEAN> 39
 8.334581e-01 1.133359e+01 -1.287578e+00 -5.463868e+00 -7.130785e+00 -7.999807e+00 -6.066147e+00 -7.325220e-01 -5.447394e-01 -1.707829e+00 -1.950349e-01 -1.169296e+00 8.695273e-01 1.162361e+00 7.116629e-01 -6.194860e-01 -2.413662e+00 -1.343170e+00 -1.644432e+00 -9.567266e-01 -1.913349e-01 -8.170274e-01 -1.108332e+00 -1.625022e+00 -1.158544e+00 5.586212e-02 -1.182214e+00 -7.064012e-01 -1.915608e-01 8.886835e-01 1.092547e+00 1.196446e+00 1.054513e+00 5.864413e-01 3.224104e-01 3.007175e-01 2.582790e-01 1.299035e-01 -2.990902e-02
<VARIANCE> 39
 9.130065e+00 2.625255e+01 1.763007e+01 1.239136e+01 1.872199e+01 1.932018e+01 1.819656e+01 1.708292e+01 1.810219e+01 2.006215e+01 2.082228e+01 3.132850e+01 4.758975e-03 1.091768e+00 9.967768e-01 1.865596e+00 1.553476e+00 2.176629e+00 2.197881e+00 3.288187e+00 2.912124e+00 2.958732e+00 3.522469e+00 6.329154e+00 2.743437e+00 3.709478e-04 7.800521e-02 1.050449e-01 2.603062e-01 2.331631e-01 3.115671e-01 3.638828e-01 2.843157e-01 2.893872e-01 2.774745e-01 3.005680e-01 3.770578e-01 5.441784e-01 5.708834e-05
<GCONST> 7.735316e+01
<STATE> 8
<NUMMIXES> 2
<MIXTURE> 1 3.096996e-01
<MEAN> 39
 -1.257687e+00 1.157325e+01 -3.224686e+00 -4.488450e+00 -5.858307e+00 -6.685346e+00 -4.552968e+00 -8.067518e-01 1.551551e+00 2.271083e+00 6.455184e+00 8.835823e+00 8.950624e-01 -5.910749e-01 1.846021e-02 -4.847589e-01 -5.989701e-03 6.444994e-01 2.194527e-01 -4.937219e-02 -7.603004e-01 -1.223819e+00 -1.025552e+00 -2.061914e-01 8.963174e-01 2.104407e-02 -5.475466e-01 -3.688273e-01 1.783823e-01 7.053472e-01 7.198391e-01 7.111809e-01 6.232523e-01 4.026135e-01 -1.066503e-02 9.995916e-02 -4.450694e-01 -7.470995e-01 -2.540687e-02
<VARIANCE> 39
 1.113838e+01 3.146792e+01 2.513520e+01 1.630372e+01 2.103250e+01 2.901342e+01 3.757852e+01 3.351211e+01 3.198469e+01 9.175607e+01 3.569893e+01 1.095629e+02 4.771621e-03 7.307247e-01 7.088361e-01 1.188626e+00 1.427158e+00 1.690659e+00 1.585667e+00 2.100692e+00 2.394475e+00 2.490255e+00 3.292945e+00 3.862050e+00 4.252673e+00 9.755055e-05 1.757408e-01 1.713893e-01 3.110394e-01 2.841432e-01 3.734875e-01 4.151813e-01 3.738770e-01 4.051936e-01 3.251783e-01 6.948082e-01 4.946503e-01 7.821274e-01 4.971536e-05
<GCONST> 8.412914e+01
<MIXTURE> 2 6.902991e-01
<MEAN> 39
 -8.297949e-01 1.165187e+01 -3.230347e-01 -5.800899e+00 -6.161020e+00 -7.368170e+00 -7.073503e+00 -1.025459e+00 -3.762286e-01 -3.840111e+00 -6.580853e-01 -3.005019e+00 9.024547e-01 -2.859594e-01 1.377735e-01 -2.799552e-01 -7.331509e-01 2.988796e-02 -3.064596e-01 -1.749606e-01 1.458577e-01 -5.296251e-01 -5.969490e-01 -5.727506e-01 -5.878091e-01 2.284203e-02 -7.065374e-01 -4.019587e-01 -1.108986e-01 8.642434e-01 7.504352e-01 7.353467e-01 7.247681e-01 2.179977e-01 1.805694e-01 3.560570e-01 3.301277e-01 3.481305e-01 -2.459079e-02
<VARIANCE> 39
 9.326262e+00 2.557251e+01 1.821684e+01 1.381423e+01 1.477710e+01 2.037572e+01 2.392373e+01 2.544713e+01 2.791702e+01 2.033366e+01 2.853612e+01 2.300004e+01 4.201156e-03 5.636600e-01 5.700638e-01 8.338959e-01 1.141074e+00 1.209283e+00 1.388999e+00 1.859385e+00 1.642610e+00 1.758972e+00 1.674523e+00 4.300477e+00 2.018850e+00 6.537815e-05 9.751867e-02 1.211024e-01 2.429233e-01 1.605739e-01 2.123773e-01 3.080449e-01 2.543676e-01 3.203668e-01 3.397753e-01 2.800495e-01 4.056898e-01 2.477471e-01 3.579726e-05
<GCONST> 6.840620e+01
<STATE> 9
<NUMMIXES> 2
<MIXTURE> 1 5.903612e-01
<MEAN> 39
 -1.258275e+00 1.245863e+01 -5.748794e-01 -5.170433e+00 -6.043458e+00 -7.401493e+00 -7.908189e+00 -1.349719e+00 2.239238e-01 -3.618737e+00 1.488862e+00 -2.256488e+00 9.027288e-01 1.742890e-02 3.407246e-01 5.715642e-02 1.378404e-01 4.064326e-01 1.952312e-01 2.418542e-01 2.483897e-01 -4.899520e-02 1.833121e-01 1.323337e-01 3.817175e-02 4.815035e-03 -4.365035e-02 -9.927750e-02 3.518919e-04 2.491834e-01 1.865420e-01 1.552497e-01 2.773921e-01 -8.055773e-04 4.923761e-02 1.792986e-01 -2.766331e-02 1.287997e-01 -8.326374e-03
<VARIANCE> 39
 9.603566e+00 2.722178e+01 2.266198e+01 1.623167e+01 1.938716e+01 2.527260e+01 4.111567e+01 3.439731e+01 3.665870e+01 5.043725e+01 4.803276e+01 5.501361e+01 4.767134e-03 2.627631e-01 3.819103e-01 5.361446e-01 7.753523e-01 7.734525e-01 1.103096e+00 1.169368e+00 8.113303e-01 1.208589e+00 1.152566e+00 1.270629e+00 1.012011e+00 5.148491e-05 8.091946e-02 1.052578e-01 1.389019e-01 2.189031e-01 2.351755e-01 2.431999e-01 2.605120e-01 2.775830e-01 2.758945e-01 2.925818e-01 3.994491e-01 2.663282e-01 3.826540e-05
<GCONST> 6.530077e+01
<MIXTURE> 2 4.096373e-01
<MEAN> 39
 -1.778082e+00 9.519131e+00 -5.721182e+00 -5.712891e+00 -6.988499e+00 -8.830770e+00 -3.972486e+00 -1.275635e+00 -3.839184e+00 4.021034e-01 -7.655556e-01 5.376183e+00 9.087933e-01 -3.961233e-01 -2.582931e-01 -6.534165e-01 -3.788918e-01 -3.103634e-01 -5.863376e-01 -2.887344e-01 -6.081130e-01 -7.717811e-01 -8.747424e-01 -8.938763e-01 -7.044765e-01 1.188674e-03 9.407143e-02 1.168270e-03 2.426529e-01 1.648541e-01 3.646664e-02 1.119746e-01 5.341141e-02 1.808102e-01 3.835793e-01 2.897868e-01 3.647382e-01 -2.415157e-02 -5.909722e-03
<VARIANCE> 39
